{"learner":{"attributes":{"best_iteration":"99","best_ntree_limit":"100","scikit_learn":"{\"n_estimators\": 100, \"objective\": \"reg:squarederror\", \"max_depth\": 3, \"max_leaves\": null, \"max_bin\": null, \"grow_policy\": null, \"learning_rate\": null, \"verbosity\": null, \"booster\": null, \"tree_method\": null, \"gamma\": null, \"min_child_weight\": null, \"max_delta_step\": null, \"subsample\": 0.9, \"sampling_method\": null, \"colsample_bytree\": null, \"colsample_bylevel\": null, \"colsample_bynode\": null, \"reg_alpha\": null, \"reg_lambda\": null, \"scale_pos_weight\": null, \"base_score\": null, \"missing\": NaN, \"num_parallel_tree\": null, \"random_state\": null, \"n_jobs\": null, \"monotone_constraints\": null, \"interaction_constraints\": null, \"importance_type\": null, \"gpu_id\": null, \"validate_parameters\": null, \"predictor\": null, \"enable_categorical\": false, \"feature_types\": null, \"max_cat_to_onehot\": null, \"max_cat_threshold\": null, \"eval_metric\": null, \"early_stopping_rounds\": null, \"callbacks\": null, \"kwargs\": {\"eta\": 0.1}, \"_estimator_type\": \"regressor\"}"},"feature_names":[],"feature_types":[],"gradient_booster":{"model":{"gbtree_model_param":{"num_parallel_tree":"1","num_trees":"100","size_leaf_vector":"0"},"tree_info":[0,0,0,0,0,0,0,0,0,0,0,0,0,0,0,0,0,0,0,0,0,0,0,0,0,0,0,0,0,0,0,0,0,0,0,0,0,0,0,0,0,0,0,0,0,0,0,0,0,0,0,0,0,0,0,0,0,0,0,0,0,0,0,0,0,0,0,0,0,0,0,0,0,0,0,0,0,0,0,0,0,0,0,0,0,0,0,0,0,0,0,0,0,0,0,0,0,0,0,0],"trees":[{"base_weights":[4.9094223E1,2.648491E1,9.205052E1,2.0351364E1,4.7579323E1,7.180113E1,1.0901213E2,1.6803207E1,2.7275597E1,4.159799E1,5.457832E1,6.578659E1,7.963291E1,9.8283035E1,1.1297115E2],"categories":[],"categories_nodes":[],"categories_segments":[],"categories_sizes":[],"default_left":[1,1,1,1,1,1,1,0,0,0,0,0,0,0,0],"id":0,"left_children":[1,3,5,7,9,11,13,-1,-1,-1,-1,-1,-1,-1,-1],"loss_changes":[7.772118E6,6.777775E5,9.4013E5,9.943625E4,4.717025E4,5.416E4,5.2612E4,0E0,0E0,0E0,0E0,0E0,0E0,0E0,0E0],"parents":[2147483647,0,0,1,1,2,2,3,3,4,4,5,5,6,6],"right_children":[2,4,6,8,10,12,14,-1,-1,-1,-1,-1,-1,-1,-1],"split_conditions":[5.9739998E1,3.4440002E1,9.0880005E1,2.234E1,4.9055E1,7.3755005E1,1.05575E2,1.6803207E0,2.7275598E0,4.159799E0,5.457832E0,6.578659E0,7.963291E0,9.828303E0,1.1297115E1],"split_indices":[0,0,0,0,0,0,0,0,0,0,0,0,0,0,0],"split_type":[0,0,0,0,0,0,0,0,0,0,0,0,0,0,0],"sum_hessian":[8.004E3,5.245E3,2.759E3,4.065E3,1.18E3,1.26E3,1.499E3,2.69E3,1.375E3,6.4E2,5.4E2,7.18E2,5.42E2,4.11E2,1.088E3],"tree_param":{"num_deleted":"0","num_feature":"3","num_nodes":"15","size_leaf_vector":"0"}},{"base_weights":[4.3853058E1,2.428116E1,8.3764046E1,1.8400316E1,4.4120056E1,6.615867E1,9.865537E1,1.5312193E1,2.5123564E1,3.8466232E1,5.0266148E1,6.1045147E1,7.379256E1,9.42752E1,1.0655777E2],"categories":[],"categories_nodes":[],"categories_segments":[],"categories_sizes":[],"default_left":[1,1,1,1,1,1,1,0,0,0,0,0,0,0,0],"id":1,"left_children":[1,3,5,7,9,11,13,-1,-1,-1,-1,-1,-1,-1,-1],"loss_changes":[6.282969E6,6.292035E5,6.8743E5,8.61315E4,4.09465E4,4.2963E4,3.9521E4,0E0,0E0,0E0,0E0,0E0,0E0,0E0,0E0],"parents":[2147483647,0,0,1,1,2,2,3,3,4,4,5,5,6,6],"right_children":[2,4,6,8,10,12,14,-1,-1,-1,-1,-1,-1,-1,-1],"split_conditions":[6.121E1,3.56E1,9.269E1,2.3365002E1,5.0415E1,7.5774994E1,1.1192E2,1.5312194E0,2.5123565E0,3.8466232E0,5.0266147E0,6.1045146E0,7.379256E0,9.42752E0,1.0655777E1],"split_indices":[0,0,0,0,0,0,0,0,0,0,0,0,0,0,0],"split_type":[0,0,0,0,0,0,0,0,0,0,0,0,0,0,0],"sum_hessian":[8.045E3,5.399E3,2.646E3,4.166E3,1.233E3,1.215E3,1.431E3,2.857E3,1.309E3,6.46E2,5.87E2,7.33E2,4.82E2,9.29E2,5.02E2],"tree_param":{"num_deleted":"0","num_feature":"3","num_nodes":"15","size_leaf_vector":"0"}},{"base_weights":[3.980254E1,2.2341373E1,7.65904E1,1.6653149E1,4.0998714E1,6.107261E1,8.94063E1,1.346745E1,2.2321835E1,3.591321E1,4.6541393E1,5.7385933E1,7.0761024E1,8.722481E1,1.0199618E2],"categories":[],"categories_nodes":[],"categories_segments":[],"categories_sizes":[],"default_left":[1,1,1,1,1,1,1,0,0,0,0,0,0,0,0],"id":2,"left_children":[1,3,5,7,9,11,13,-1,-1,-1,-1,-1,-1,-1,-1],"loss_changes":[5.112106E6,5.72404E5,5.04057E5,7.4462375E4,3.387275E4,3.7444E4,2.9581E4,0E0,0E0,0E0,0E0,0E0,0E0,0E0,0E0],"parents":[2147483647,0,0,1,1,2,2,3,3,4,4,5,5,6,6],"right_children":[2,4,6,8,10,12,14,-1,-1,-1,-1,-1,-1,-1,-1],"split_conditions":[6.2815002E1,3.6885002E1,9.5869995E1,2.1625E1,5.2285E1,8.0115E1,1.18024994E2,1.346745E0,2.2321835E0,3.5913212E0,4.6541395E0,5.7385936E0,7.0761027E0,8.722481E0,1.0199618E1],"split_indices":[0,0,0,0,0,0,0,0,0,0,0,0,0,0,0],"split_type":[0,0,0,0,0,0,0,0,0,0,0,0,0,0,0],"sum_hessian":[7.96E3,5.399E3,2.561E3,4.139E3,1.26E3,1.161E3,1.4E3,2.652E3,1.487E3,6.61E2,5.99E2,8.46E2,3.15E2,1.2E3,2E2],"tree_param":{"num_deleted":"0","num_feature":"3","num_nodes":"15","size_leaf_vector":"0"}},{"base_weights":[3.594045E1,1.8628532E1,6.62077E1,1.4102959E1,3.1809511E1,5.0791107E1,7.90989E1,1.1662212E1,1.7866478E1,2.6396389E1,3.7027397E1,4.5538067E1,5.5905823E1,6.989119E1,8.249825E1],"categories":[],"categories_nodes":[],"categories_segments":[],"categories_sizes":[],"default_left":[1,1,1,1,1,1,1,0,0,0,0,0,0,0,0],"id":3,"left_children":[1,3,5,7,9,11,13,-1,-1,-1,-1,-1,-1,-1,-1],"loss_changes":[4.205836E6,3.0431075E5,5.76498E5,3.4743625E4,3.5882375E4,3.326875E4,4.397E4,0E0,0E0,0E0,0E0,0E0,0E0,0E0,0E0],"parents":[2147483647,0,0,1,1,2,2,3,3,4,4,5,5,6,6],"right_children":[2,4,6,8,10,12,14,-1,-1,-1,-1,-1,-1,-1,-1],"split_conditions":[5.7864998E1,3.0915E1,8.7104996E1,1.981E1,4.358E1,6.9825E1,1.0428E2,1.1662213E0,1.7866478E0,2.639639E0,3.7027397E0,4.553807E0,5.5905824E0,6.989119E0,8.2498255E0],"split_indices":[0,0,0,0,0,0,0,0,0,0,0,0,0,0,0],"split_type":[0,0,0,0,0,0,0,0,0,0,0,0,0,0,0],"sum_hessian":[8.028E3,5.108E3,2.92E3,3.804E3,1.304E3,1.332E3,1.588E3,2.31E3,1.494E3,6.43E2,6.61E2,6.62E2,6.7E2,4.34E2,1.154E3],"tree_param":{"num_deleted":"0","num_feature":"3","num_nodes":"15","size_leaf_vector":"0"}},{"base_weights":[3.208338E1,1.8261856E1,6.255329E1,1.3629414E1,3.3889183E1,5.0506405E1,7.285565E1,1.1330266E1,1.9514597E1,2.9844778E1,3.8177994E1,4.7179413E1,5.8379158E1,7.104307E1,8.517256E1],"categories":[],"categories_nodes":[],"categories_segments":[],"categories_sizes":[],"default_left":[1,1,1,1,1,1,1,0,0,0,0,0,0,0,0],"id":4,"left_children":[1,3,5,7,9,11,13,-1,-1,-1,-1,-1,-1,-1,-1],"loss_changes":[3.362507E6,3.974085E5,3.05606E5,5.71635E4,2.064675E4,2.74195E4,2.3888E4,0E0,0E0,0E0,0E0,0E0,0E0,0E0,0E0],"parents":[2147483647,0,0,1,1,2,2,3,3,4,4,5,5,6,6],"right_children":[2,4,6,8,10,12,14,-1,-1,-1,-1,-1,-1,-1,-1],"split_conditions":[6.4085E1,3.847E1,9.694E1,2.5224998E1,5.3325E1,8.1595E1,1.1971E2,1.1330266E0,1.9514598E0,2.9844778E0,3.8177993E0,4.7179413E0,5.837916E0,7.1043067E0,8.517257E0],"split_indices":[0,0,0,0,0,0,2,0,0,0,0,0,0,0,0],"split_type":[0,0,0,0,0,0,0,0,0,0,0,0,0,0,0],"sum_hessian":[7.986E3,5.495E3,2.491E3,4.24E3,1.255E3,1.151E3,1.34E3,3.051E3,1.189E3,6.5E2,6.05E2,8.14E2,3.37E2,1.174E3,1.66E2],"tree_param":{"num_deleted":"0","num_feature":"3","num_nodes":"15","size_leaf_vector":"0"}},{"base_weights":[2.8731009E1,1.4840659E1,5.322219E1,1.121604E1,2.4846813E1,4.0847546E1,6.4099815E1,8.098175E0,1.320886E1,2.060978E1,2.9205404E1,3.6446003E1,4.513146E1,5.8039608E1,6.785409E1],"categories":[],"categories_nodes":[],"categories_segments":[],"categories_sizes":[],"default_left":[1,1,1,1,1,1,1,0,0,0,0,0,0,0,0],"id":5,"left_children":[1,3,5,7,9,11,13,-1,-1,-1,-1,-1,-1,-1,-1],"loss_changes":[2.72278E6,1.8505325E5,3.87337E5,2.3211719E4,2.4477E4,2.396125E4,3.10995E4,0E0,0E0,0E0,0E0,0E0,0E0,0E0,0E0],"parents":[2147483647,0,0,1,1,2,2,3,3,4,4,5,5,6,6],"right_children":[2,4,6,8,10,12,14,-1,-1,-1,-1,-1,-1,-1,-1],"split_conditions":[5.709E1,2.981E1,8.698E1,1.7974998E1,4.2405E1,6.9155E1,1.07884995E2,8.098175E-1,1.320886E0,2.060978E0,2.9205406E0,3.6446004E0,4.513146E0,5.803961E0,6.785409E0],"split_indices":[0,0,0,0,0,0,0,0,0,0,0,0,0,0,0],"split_type":[0,0,0,0,0,0,0,0,0,0,0,0,0,0,0],"sum_hessian":[8.005E3,5.109E3,2.896E3,3.752E3,1.357E3,1.357E3,1.539E3,1.465E3,2.287E3,6.91E2,6.66E2,6.74E2,6.83E2,5.95E2,9.44E2],"tree_param":{"num_deleted":"0","num_feature":"3","num_nodes":"15","size_leaf_vector":"0"}},{"base_weights":[2.5923483E1,1.3538253E1,4.8225113E1,1.0437987E1,2.3967358E1,3.7146156E1,5.777836E1,8.511897E0,1.3760733E1,2.0316841E1,2.7632963E1,3.34188E1,4.1064114E1,5.5204933E1,6.583813E1],"categories":[],"categories_nodes":[],"categories_segments":[],"categories_sizes":[],"default_left":[1,1,1,1,1,1,1,0,0,0,0,0,0,0,0],"id":6,"left_children":[1,3,5,7,9,11,13,-1,-1,-1,-1,-1,-1,-1,-1],"loss_changes":[2.223673E6,1.6720231E5,3.021435E5,2.5444125E4,1.5308875E4,1.8108875E4,2.8348E4,0E0,0E0,0E0,0E0,0E0,0E0,0E0,0E0],"parents":[2147483647,0,0,1,1,2,2,3,3,4,4,5,5,6,6],"right_children":[2,4,6,8,10,12,14,-1,-1,-1,-1,-1,-1,-1,-1],"split_conditions":[5.7955E1,3.2364998E1,8.8285E1,2.0474998E1,4.5535E1,7.0535E1,1.1428E2,8.5118973E-1,1.3760732E0,2.0316842E0,2.7632964E0,3.34188E0,4.1064115E0,5.5204935E0,6.5838127E0],"split_indices":[2,0,0,0,0,0,0,0,0,0,0,0,0,0,0],"split_type":[0,0,0,0,0,0,0,0,0,0,0,0,0,0,0],"sum_hessian":[8.052E3,5.178E3,2.874E3,3.993E3,1.185E3,1.333E3,1.541E3,2.53E3,1.463E3,5.97E2,5.88E2,6.88E2,6.45E2,1.174E3,3.67E2],"tree_param":{"num_deleted":"0","num_feature":"3","num_nodes":"15","size_leaf_vector":"0"}},{"base_weights":[2.3447577E1,1.3472189E1,4.599532E1,9.953658E0,2.505335E1,3.7250072E1,5.3463085E1,8.319374E0,1.4847174E1,2.1489029E1,2.7743446E1,3.435956E1,4.182249E1,5.2133137E1,6.459584E1],"categories":[],"categories_nodes":[],"categories_segments":[],"categories_sizes":[],"default_left":[1,1,1,1,1,1,1,0,0,0,0,0,0,0,0],"id":7,"left_children":[1,3,5,7,9,11,13,-1,-1,-1,-1,-1,-1,-1,-1],"loss_changes":[1.801459E6,2.2615019E5,1.58469E5,3.3969344E4,1.18111875E4,1.3564E4,1.6221E4,0E0,0E0,0E0,0E0,0E0,0E0,0E0,0E0],"parents":[2147483647,0,0,1,1,2,2,3,3,4,4,5,5,6,6],"right_children":[2,4,6,8,10,12,14,-1,-1,-1,-1,-1,-1,-1,-1],"split_conditions":[6.5155E1,3.9114998E1,9.8615E1,2.5974998E1,5.1735E1,7.869E1,1.2204E2,8.3193743E-1,1.4847174E0,2.148903E0,2.7743447E0,3.4359558E0,4.182249E0,5.2133136E0,6.459584E0],"split_indices":[0,0,0,0,2,0,0,0,0,0,0,0,0,0,0],"split_type":[0,0,0,0,0,0,0,0,0,0,0,0,0,0,0],"sum_hessian":[8.011E3,5.555E3,2.456E3,4.262E3,1.293E3,1.134E3,1.322E3,3.197E3,1.065E3,5.6E2,7.33E2,7E2,4.34E2,1.186E3,1.36E2],"tree_param":{"num_deleted":"0","num_feature":"3","num_nodes":"15","size_leaf_vector":"0"}},{"base_weights":[2.1079664E1,1.2010813E1,4.1106594E1,8.477125E0,2.107717E1,3.3219215E1,4.80764E1,5.9672027E0,1.0463006E1,1.68591E1,2.3943071E1,3.1022827E1,3.8228954E1,4.6829216E1,5.822716E1],"categories":[],"categories_nodes":[],"categories_segments":[],"categories_sizes":[],"default_left":[1,1,1,1,1,1,1,0,0,0,0,0,0,0,0],"id":8,"left_children":[1,3,5,7,9,11,13,-1,-1,-1,-1,-1,-1,-1,-1],"loss_changes":[1.4477545E6,1.7570812E5,1.35012E5,1.9635938E4,1.8200688E4,1.1677E4,1.3946E4,0E0,0E0,0E0,0E0,0E0,0E0,0E0,0E0],"parents":[2147483647,0,0,1,1,2,2,3,3,4,4,5,5,6,6],"right_children":[2,4,6,8,10,12,14,-1,-1,-1,-1,-1,-1,-1,-1],"split_conditions":[6.4205E1,3.2675E1,9.818E1,1.8575E1,4.6535E1,8.1795E1,1.2162E2,5.967203E-1,1.0463006E0,1.6859101E0,2.3943071E0,3.1022828E0,3.8228955E0,4.682922E0,5.822716E0],"split_indices":[2,0,2,0,0,0,0,0,0,0,0,0,0,0,0],"split_type":[0,0,0,0,0,0,0,0,0,0,0,0,0,0,0],"sum_hessian":[7.973E3,5.489E3,2.484E3,3.951E3,1.538E3,1.168E3,1.316E3,1.747E3,2.204E3,6.25E2,9.13E2,8.17E2,3.51E2,1.177E3,1.39E2],"tree_param":{"num_deleted":"0","num_feature":"3","num_nodes":"15","size_leaf_vector":"0"}},{"base_weights":[1.9071756E1,9.534913E0,3.4733994E1,7.008655E0,1.5399884E1,2.6805084E1,4.218491E1,3.791203E0,8.028993E0,1.30823765E1,1.8514421E1,2.4208532E1,3.0496944E1,3.914051E1,4.6291325E1],"categories":[],"categories_nodes":[],"categories_segments":[],"categories_sizes":[],"default_left":[1,1,1,1,1,1,1,0,0,0,0,0,0,0,0],"id":9,"left_children":[1,3,5,7,9,11,13,-1,-1,-1,-1,-1,-1,-1,-1],"loss_changes":[1.1869972E6,7.311484E4,1.7657475E5,1.1315234E4,1.0490875E4,1.3257375E4,1.7553E4,0E0,0E0,0E0,0E0,0E0,0E0,0E0,0E0],"parents":[2147483647,0,0,1,1,2,2,3,3,4,4,5,5,6,6],"right_children":[2,4,6,8,10,12,14,-1,-1,-1,-1,-1,-1,-1,-1],"split_conditions":[5.6035E1,2.8115002E1,8.9295E1,1.6365E1,4.1510002E1,7.1600006E1,1.102E2,3.7912032E-1,8.028993E-1,1.3082377E0,1.8514422E0,2.4208534E0,3.0496945E0,3.914051E0,4.6291327E0],"split_indices":[0,0,2,0,0,2,0,0,0,0,0,0,0,0,0],"split_type":[0,0,0,0,0,0,0,0,0,0,0,0,0,0,0],"sum_hessian":[7.948E3,4.941E3,3.007E3,3.455E3,1.486E3,1.459E3,1.548E3,8.33E2,2.622E3,8.55E2,6.31E2,8.61E2,5.98E2,8.95E2,6.53E2],"tree_param":{"num_deleted":"0","num_feature":"3","num_nodes":"15","size_leaf_vector":"0"}},{"base_weights":[1.710073E1,9.770734E0,3.357204E1,6.8989434E0,1.7216402E1,2.7508652E1,3.958834E1,4.0713396E0,8.142352E0,1.4040861E1,1.973144E1,2.506822E1,3.088751E1,3.8455963E1,4.797782E1],"categories":[],"categories_nodes":[],"categories_segments":[],"categories_sizes":[],"default_left":[1,1,1,1,1,1,1,0,0,0,0,0,0,0,0],"id":10,"left_children":[1,3,5,7,9,11,13,-1,-1,-1,-1,-1,-1,-1,-1],"loss_changes":[9.6072E5,1.1769825E5,8.83215E4,1.3952969E4,1.1966375E4,9.3186875E3,9.821125E3,0E0,0E0,0E0,0E0,0E0,0E0,0E0,0E0],"parents":[2147483647,0,0,1,1,2,2,3,3,4,4,5,5,6,6],"right_children":[2,4,6,8,10,12,14,-1,-1,-1,-1,-1,-1,-1,-1],"split_conditions":[6.4899994E1,3.3205E1,1.01555E2,1.7345001E1,4.8019997E1,7.8884995E1,1.2204E2,4.0713397E-1,8.142352E-1,1.4040861E0,1.9731439E0,2.506822E0,3.088751E0,3.8455963E0,4.7977824E0],"split_indices":[1,0,0,0,2,1,0,0,0,0,0,0,0,0,0],"split_type":[0,0,0,0,0,0,0,0,0,0,0,0,0,0,0],"sum_hessian":[7.959E3,5.509E3,2.45E3,3.977E3,1.532E3,1.223E3,1.227E3,1.216E3,2.761E3,6.8E2,8.52E2,7.15E2,5.08E2,1.086E3,1.41E2],"tree_param":{"num_deleted":"0","num_feature":"3","num_nodes":"15","size_leaf_vector":"0"}},{"base_weights":[1.5382603E1,7.766478E0,2.821132E1,5.4990973E0,1.2433056E1,2.2458303E1,3.5022625E1,1.886207E0,6.1507497E0,1.0633846E1,1.51961775E1,2.0054293E1,2.6009512E1,3.3413418E1,4.036889E1],"categories":[],"categories_nodes":[],"categories_segments":[],"categories_sizes":[],"default_left":[1,1,1,1,1,1,1,0,0,0,0,0,0,0,0],"id":11,"left_children":[1,3,5,7,9,11,13,-1,-1,-1,-1,-1,-1,-1,-1],"loss_changes":[7.8278975E5,5.3153594E4,1.1618225E5,7.962586E3,8.0114688E3,1.33170625E4,1.03945E4,0E0,0E0,0E0,0E0,0E0,0E0,0E0,0E0],"parents":[2147483647,0,0,1,1,2,2,3,3,4,4,5,5,6,6],"right_children":[2,4,6,8,10,12,14,-1,-1,-1,-1,-1,-1,-1,-1],"split_conditions":[5.6364998E1,2.741E1,9.647E1,1.5205E1,4.2015E1,7.4175E1,1.15345E2,1.886207E-1,6.15075E-1,1.0633847E0,1.5196178E0,2.0054293E0,2.6009512E0,3.3413417E0,4.036889E0],"split_indices":[2,0,2,0,2,0,2,0,0,0,0,0,0,0,0],"split_type":[0,0,0,0,0,0,0,0,0,0,0,0,0,0,0],"sum_hessian":[8.013E3,5.029E3,2.984E3,3.386E3,1.643E3,1.62E3,1.364E3,5.18E2,2.868E3,9.98E2,6.45E2,9.7E2,6.5E2,1.054E3,3.1E2],"tree_param":{"num_deleted":"0","num_feature":"3","num_nodes":"15","size_leaf_vector":"0"}},{"base_weights":[1.38228445E1,7.6184115E0,2.6527636E1,5.16974E0,1.2648224E1,2.1678318E1,3.1982742E1,2.1830137E0,5.8543234E0,1.0449756E1,1.5399129E1,1.9411451E1,2.4605803E1,3.1397224E1,4.3686596E1],"categories":[],"categories_nodes":[],"categories_segments":[],"categories_sizes":[],"default_left":[1,1,1,1,1,1,1,0,0,0,0,0,0,0,0],"id":12,"left_children":[1,3,5,7,9,11,13,-1,-1,-1,-1,-1,-1,-1,-1],"loss_changes":[6.283566E5,6.593794E4,6.8509125E4,7.3602734E3,1.0446875E4,8.7334375E3,7.0505E3,0E0,0E0,0E0,0E0,0E0,0E0,0E0,0E0],"parents":[2147483647,0,0,1,1,2,2,3,3,4,4,5,5,6,6],"right_children":[2,4,6,8,10,12,14,-1,-1,-1,-1,-1,-1,-1,-1],"split_conditions":[6.1489998E1,2.8925E1,1.01305E2,1.587E1,4.6519997E1,7.7435E1,1.2708E2,2.1830137E-1,5.8543235E-1,1.0449756E0,1.5399129E0,1.9411452E0,2.4605803E0,3.1397226E0,4.3686595E0],"split_indices":[2,0,1,0,2,0,0,0,0,0,0,0,0,0,0],"split_type":[0,0,0,0,0,0,0,0,0,0,0,0,0,0,0],"sum_hessian":[7.973E3,5.358E3,2.615E3,3.605E3,1.753E3,1.387E3,1.228E3,6.73E2,2.932E3,9.77E2,7.76E2,7.86E2,6.01E2,1.173E3,5.5E1],"tree_param":{"num_deleted":"0","num_feature":"3","num_nodes":"15","size_leaf_vector":"0"}},{"base_weights":[1.2413826E1,7.1286206E0,2.4697E1,4.7878056E0,1.2155859E1,2.0507198E1,2.9017998E1,3.5056067E0,6.3358154E0,9.932283E0,1.4446862E1,1.8724472E1,2.3074099E1,2.7800858E1,3.3670193E1],"categories":[],"categories_nodes":[],"categories_segments":[],"categories_sizes":[],"default_left":[1,1,1,1,1,1,1,0,0,0,0,0,0,0,0],"id":13,"left_children":[1,3,5,7,9,11,13,-1,-1,-1,-1,-1,-1,-1,-1],"loss_changes":[5.2041012E5,6.593581E4,4.3072E4,7.5758203E3,8.9293125E3,5.187375E3,5.7739375E3,0E0,0E0,0E0,0E0,0E0,0E0,0E0,0E0],"parents":[2147483647,0,0,1,1,2,2,3,3,4,4,5,5,6,6],"right_children":[2,4,6,8,10,12,14,-1,-1,-1,-1,-1,-1,-1,-1],"split_conditions":[6.614E1,3.0425E1,1.02759995E2,1.9175E1,4.854E1,8.221001E1,1.16925E2,3.5056067E-1,6.335816E-1,9.932284E-1,1.4446863E0,1.8724473E0,2.30741E0,2.7800858E0,3.3670194E0],"split_indices":[0,0,0,0,0,1,0,0,0,0,0,0,0,0,0],"split_type":[0,0,0,0,0,0,0,0,0,0,0,0,0,0,0],"sum_hessian":[8.018E3,5.607E3,2.411E3,3.827E3,1.78E3,1.227E3,1.184E3,2.095E3,1.732E3,9.06E2,8.74E2,7.29E2,4.98E2,9.44E2,2.4E2],"tree_param":{"num_deleted":"0","num_feature":"3","num_nodes":"15","size_leaf_vector":"0"}},{"base_weights":[1.1232774E1,6.4455595E0,2.2209293E1,4.7309294E0,1.2024331E1,1.8249832E1,2.6034811E1,3.6379008E0,7.043336E0,1.04794655E1,1.3502228E1,1.6758362E1,2.0678488E1,2.4758627E1,2.975846E1],"categories":[],"categories_nodes":[],"categories_segments":[],"categories_sizes":[],"default_left":[1,1,1,1,1,1,1,0,0,0,0,0,0,0,0],"id":14,"left_children":[1,3,5,7,9,11,13,-1,-1,-1,-1,-1,-1,-1,-1],"loss_changes":[4.191815E5,5.3108312E4,3.6225875E4,1.0723945E4,2.8403125E3,3.9784375E3,5.10825E3,0E0,0E0,0E0,0E0,0E0,0E0,0E0,0E0],"parents":[2147483647,0,0,1,1,2,2,3,3,4,4,5,5,6,6],"right_children":[2,4,6,8,10,12,14,-1,-1,-1,-1,-1,-1,-1,-1],"split_conditions":[6.575E1,3.9239998E1,1.01835E2,2.3965E1,5.4114998E1,8.2354996E1,1.15315E2,3.637901E-1,7.043336E-1,1.0479466E0,1.3502228E0,1.6758362E0,2.067849E0,2.4758627E0,2.975846E0],"split_indices":[2,0,0,0,0,0,0,0,0,0,0,0,0,0,0],"split_type":[0,0,0,0,0,0,0,0,0,0,0,0,0,0,0],"sum_hessian":[7.979E3,5.557E3,2.422E3,4.252E3,1.305E3,1.193E3,1.229E3,2.889E3,1.363E3,6.42E2,6.63E2,7.44E2,4.49E2,9.21E2,3.08E2],"tree_param":{"num_deleted":"0","num_feature":"3","num_nodes":"15","size_leaf_vector":"0"}},{"base_weights":[1.0042681E1,5.8644032E0,2.016527E1,4.242682E0,1.093974E1,1.6887243E1,2.3729565E1,3.270832E0,6.357876E0,9.527283E0,1.2283518E1,1.53872385E1,1.8887468E1,2.3275188E1,3.4718708E1],"categories":[],"categories_nodes":[],"categories_segments":[],"categories_sizes":[],"default_left":[1,1,1,1,1,1,1,0,0,0,0,0,0,0,0],"id":15,"left_children":[1,3,5,7,9,11,13,-1,-1,-1,-1,-1,-1,-1,-1],"loss_changes":[3.3578844E5,4.6235266E4,2.6705875E4,8.742445E3,2.4662031E3,3.3458125E3,4.729375E3,0E0,0E0,0E0,0E0,0E0,0E0,0E0,0E0],"parents":[2147483647,0,0,1,1,2,2,3,3,4,4,5,5,6,6],"right_children":[2,4,6,8,10,12,14,-1,-1,-1,-1,-1,-1,-1,-1],"split_conditions":[6.7435E1,3.918E1,1.03935E2,2.4025002E1,5.5059998E1,8.3274994E1,1.2907999E2,3.270832E-1,6.357876E-1,9.527283E-1,1.2283518E0,1.5387238E0,1.8887469E0,2.327519E0,3.471871E0],"split_indices":[0,1,0,0,0,0,0,0,0,0,0,0,0,0,0],"split_type":[0,0,0,0,0,0,0,0,0,0,0,0,0,0,0],"sum_hessian":[7.941E3,5.622E3,2.319E3,4.262E3,1.36E3,1.211E3,1.108E3,2.922E3,1.34E3,6.67E2,6.93E2,6.97E2,5.14E2,1.067E3,4.1E1],"tree_param":{"num_deleted":"0","num_feature":"3","num_nodes":"15","size_leaf_vector":"0"}},{"base_weights":[9.087072E0,5.3048596E0,1.8197016E1,3.328317E0,8.733918E0,1.4980158E1,2.1125444E1,7.0318505E-2,3.7753897E0,6.8276243E0,1.0427578E1,1.3851273E1,1.6825966E1,2.0682571E1,2.9822031E1],"categories":[],"categories_nodes":[],"categories_segments":[],"categories_sizes":[],"default_left":[1,1,1,1,1,1,1,0,0,0,0,0,0,0,0],"id":16,"left_children":[1,3,5,7,9,11,13,-1,-1,-1,-1,-1,-1,-1,-1],"loss_changes":[2.7489475E5,3.8203812E4,2.17365E4,5.2142305E3,6.586203E3,2.098625E3,4.0935625E3,0E0,0E0,0E0,0E0,0E0,0E0,0E0,0E0],"parents":[2147483647,0,0,1,1,2,2,3,3,4,4,5,5,6,6],"right_children":[2,4,6,8,10,12,14,-1,-1,-1,-1,-1,-1,-1,-1],"split_conditions":[6.7545E1,2.881E1,1.02095E2,1.4639999E1,4.5775E1,8.3274994E1,1.27274994E2,7.0318505E-3,3.7753898E-1,6.8276244E-1,1.0427579E0,1.3851273E0,1.6825966E0,2.068257E0,2.9822032E0],"split_indices":[0,0,2,0,1,0,2,0,0,0,0,0,0,0,0],"split_type":[0,0,0,0,0,0,0,0,0,0,0,0,0,0,0],"sum_hessian":[7.98E3,5.64E3,2.34E3,3.579E3,2.061E3,1.118E3,1.222E3,4.32E2,3.147E3,9.72E2,1.089E3,6.99E2,4.19E2,1.166E3,5.6E1],"tree_param":{"num_deleted":"0","num_feature":"3","num_nodes":"15","size_leaf_vector":"0"}},{"base_weights":[8.170708E0,4.077129E0,1.4994706E1,2.8215196E0,6.564261E0,1.2091578E1,1.8831495E1,-2.5226173E-1,3.1926494E0,5.6799574E0,7.986553E0,1.0499658E1,1.4052667E1,1.7132034E1,2.0891119E1],"categories":[],"categories_nodes":[],"categories_segments":[],"categories_sizes":[],"default_left":[1,1,1,1,1,1,1,0,0,0,0,0,0,0,0],"id":17,"left_children":[1,3,5,7,9,11,13,-1,-1,-1,-1,-1,-1,-1,-1],"loss_changes":[2.2391831E5,1.5636406E4,3.3255188E4,3.802996E3,2.0688906E3,5.203375E3,4.1679062E3,0E0,0E0,0E0,0E0,0E0,0E0,0E0,0E0],"parents":[2147483647,0,0,1,1,2,2,3,3,4,4,5,5,6,6],"right_children":[2,4,6,8,10,12,14,-1,-1,-1,-1,-1,-1,-1,-1],"split_conditions":[5.5985E1,2.7015E1,9.9759995E1,1.4215E1,4.1510002E1,7.306E1,1.10925E2,-2.5226174E-2,3.1926495E-1,5.679957E-1,7.9865533E-1,1.0499657E0,1.4052666E0,1.7132034E0,2.089112E0],"split_indices":[0,0,0,0,0,2,2,0,0,0,0,0,0,0,0],"split_type":[0,0,0,0,0,0,0,0,0,0,0,0,0,0,0],"sum_hessian":[8.017E3,5.012E3,3.005E3,3.332E3,1.68E3,1.713E3,1.292E3,3.59E2,2.973E3,1.039E3,6.41E2,9.49E2,7.64E2,7.13E2,5.79E2],"tree_param":{"num_deleted":"0","num_feature":"3","num_nodes":"15","size_leaf_vector":"0"}},{"base_weights":[7.3534327E0,3.8977473E0,1.3925728E1,2.552592E0,6.291111E0,1.1357659E1,1.7068447E1,4.490015E-1,3.0068476E0,5.27902E0,7.8696203E0,9.93492E0,1.2988588E1,1.6736074E1,2.7386791E1],"categories":[],"categories_nodes":[],"categories_segments":[],"categories_sizes":[],"default_left":[1,1,1,1,1,1,1,0,0,0,0,0,0,0,0],"id":18,"left_children":[1,3,5,7,9,11,13,-1,-1,-1,-1,-1,-1,-1,-1],"loss_changes":[1.8141281E5,1.6847398E4,2.2024875E4,3.20458E3,2.9683281E3,3.3932969E3,3.7805625E3,0E0,0E0,0E0,0E0,0E0,0E0,0E0,0E0],"parents":[2147483647,0,0,1,1,2,2,3,3,4,4,5,5,6,6],"right_children":[2,4,6,8,10,12,14,-1,-1,-1,-1,-1,-1,-1,-1],"split_conditions":[5.9515E1,2.7175E1,1.01405E2,1.5514999E1,4.443E1,7.5354996E1,1.3143E2,4.490015E-2,3.0068478E-1,5.27902E-1,7.8696203E-1,9.9349207E-1,1.2988589E0,1.6736075E0,2.7386792E0],"split_indices":[2,0,2,0,2,2,0,0,0,0,0,0,0,0,0],"split_type":[0,0,0,0,0,0,0,0,0,0,0,0,0,0,0],"sum_hessian":[7.989E3,5.237E3,2.752E3,3.354E3,1.883E3,1.517E3,1.235E3,5.96E2,2.758E3,1.15E3,7.33E2,8.14E2,7.03E2,1.199E3,3.6E1],"tree_param":{"num_deleted":"0","num_feature":"3","num_nodes":"15","size_leaf_vector":"0"}},{"base_weights":[6.6327434E0,3.8505833E0,1.319242E1,2.5733008E0,6.616211E0,1.1212714E1,1.58647995E1,1.0624497E0,3.1904802E0,5.5328097E0,7.8864927E0,1.0068698E1,1.2564932E1,1.5465931E1,2.2362276E1],"categories":[],"categories_nodes":[],"categories_segments":[],"categories_sizes":[],"default_left":[1,1,1,1,1,1,1,0,0,0,0,0,0,0,0],"id":19,"left_children":[1,3,5,7,9,11,13,-1,-1,-1,-1,-1,-1,-1,-1],"loss_changes":[1.4532928E5,1.9747234E4,1.2371219E4,3.5670215E3,2.388164E3,1.986625E3,2.2639219E3,0E0,0E0,0E0,0E0,0E0,0E0,0E0,0E0],"parents":[2147483647,0,0,1,1,2,2,3,3,4,4,5,5,6,6],"right_children":[2,4,6,8,10,12,14,-1,-1,-1,-1,-1,-1,-1,-1],"split_conditions":[6.6815E1,3.127E1,1.0711E2,1.7045E1,5.144E1,8.4015E1,1.2708E2,1.06244974E-1,3.1904802E-1,5.53281E-1,7.8864926E-1,1.0068698E0,1.2564932E0,1.5465931E0,2.2362278E0],"split_indices":[2,2,0,0,0,0,0,0,0,0,0,0,0,0,0],"split_type":[0,0,0,0,0,0,0,0,0,0,0,0,0,0,0],"sum_hessian":[7.965E3,5.594E3,2.371E3,3.828E3,1.766E3,1.365E3,1.006E3,1.111E3,2.717E3,9.56E2,8.1E2,7.44E2,6.21E2,9.51E2,5.5E1],"tree_param":{"num_deleted":"0","num_feature":"3","num_nodes":"15","size_leaf_vector":"0"}},{"base_weights":[5.96007E0,3.4493895E0,1.1959012E1,2.1095295E0,5.6061373E0,1.0308074E1,1.4535117E1,-7.382998E-1,2.3630412E0,4.387403E0,6.7774577E0,9.106312E0,1.1488843E1,1.4185207E1,2.2237371E1],"categories":[],"categories_nodes":[],"categories_segments":[],"categories_sizes":[],"default_left":[1,1,1,1,1,1,1,0,0,0,0,0,0,0,0],"id":20,"left_children":[1,3,5,7,9,11,13,-1,-1,-1,-1,-1,-1,-1,-1],"loss_changes":[1.19892875E5,1.62140625E4,9.8404375E3,2.503329E3,3.040875E3,1.9316406E3,2.1505781E3,0E0,0E0,0E0,0E0,0E0,0E0,0E0,0E0],"parents":[2147483647,0,0,1,1,2,2,3,3,4,4,5,5,6,6],"right_children":[2,4,6,8,10,12,14,-1,-1,-1,-1,-1,-1,-1,-1],"split_conditions":[6.7175E1,2.7895E1,1.0816E2,1.3645E1,4.517E1,8.4015E1,1.3143E2,-7.382998E-2,2.3630412E-1,4.387403E-1,6.7774576E-1,9.106312E-1,1.1488843E0,1.4185208E0,2.2237372E0],"split_indices":[2,0,2,0,0,2,0,0,0,0,0,0,0,0,0],"split_type":[0,0,0,0,0,0,0,0,0,0,0,0,0,0,0],"sum_hessian":[7.962E3,5.614E3,2.348E3,3.464E3,2.15E3,1.434E3,9.14E2,2.83E2,3.181E3,1.056E3,1.094E3,7.15E2,7.19E2,8.77E2,3.7E1],"tree_param":{"num_deleted":"0","num_feature":"3","num_nodes":"15","size_leaf_vector":"0"}},{"base_weights":[5.3742437E0,2.6414917E0,9.8476095E0,1.6883153E0,4.093207E0,7.433855E0,1.1950564E1,-1.1382208E0,1.8975708E0,3.5533612E0,5.12818E0,6.8223033E0,8.641175E0,1.1040277E1,1.4672078E1],"categories":[],"categories_nodes":[],"categories_segments":[],"categories_sizes":[],"default_left":[1,1,1,1,1,1,1,0,0,0,0,0,0,0,0],"id":21,"left_children":[1,3,5,7,9,11,13,-1,-1,-1,-1,-1,-1,-1,-1],"loss_changes":[9.756295E4,6.852289E3,1.5276281E4,1.7730156E3,1.0791133E3,9.8358594E2,3.8414062E3,0E0,0E0,0E0,0E0,0E0,0E0,0E0,0E0],"parents":[2147483647,0,0,1,1,2,2,3,3,4,4,5,5,6,6],"right_children":[2,4,6,8,10,12,14,-1,-1,-1,-1,-1,-1,-1,-1],"split_conditions":[5.5405E1,2.4825E1,8.4585E1,1.2965E1,3.9965E1,7.2375E1,1.1357E2,-1.1382208E-1,1.897571E-1,3.5533613E-1,5.1281804E-1,6.8223035E-1,8.6411756E-1,1.1040276E0,1.4672078E0],"split_indices":[2,2,0,0,2,0,2,0,0,0,0,0,0,0,0],"split_type":[0,0,0,0,0,0,0,0,0,0,0,0,0,0,0],"sum_hessian":[7.982E3,4.956E3,3.026E3,2.993E3,1.963E3,1.411E3,1.615E3,2.06E2,2.787E3,1.293E3,6.7E2,9.41E2,4.7E2,1.214E3,4.01E2],"tree_param":{"num_deleted":"0","num_feature":"3","num_nodes":"15","size_leaf_vector":"0"}},{"base_weights":[4.8492312E0,2.6557205E0,9.377291E0,1.6153109E0,4.254751E0,8.077291E0,1.2025793E1,5.315351E-1,2.082897E0,3.5030959E0,5.298154E0,7.080894E0,9.25928E0,1.1663978E1,1.8111856E1],"categories":[],"categories_nodes":[],"categories_segments":[],"categories_sizes":[],"default_left":[1,1,1,1,1,1,1,0,0,0,0,0,0,0,0],"id":22,"left_children":[1,3,5,7,9,11,13,-1,-1,-1,-1,-1,-1,-1,-1],"loss_changes":[7.893725E4,8.905285E3,8.834156E3,1.6443369E3,1.6370547E3,1.9872188E3,1.6648828E3,0E0,0E0,0E0,0E0,0E0,0E0,0E0,0E0],"parents":[2147483647,0,0,1,1,2,2,3,3,4,4,5,5,6,6],"right_children":[2,4,6,8,10,12,14,-1,-1,-1,-1,-1,-1,-1,-1],"split_conditions":[6.2045E1,2.6564999E1,1.0859E2,1.6715E1,4.4455E1,8.3185E1,1.2870999E2,5.315351E-2,2.082897E-1,3.5030958E-1,5.298154E-1,7.080894E-1,9.2592806E-1,1.1663978E0,1.8111857E0],"split_indices":[0,0,0,0,1,2,0,0,0,0,0,0,0,0,0],"split_type":[0,0,0,0,0,0,0,0,0,0,0,0,0,0,0],"sum_hessian":[7.949E3,5.356E3,2.593E3,3.246E3,2.11E3,1.742E3,8.51E2,9.79E2,2.267E3,1.229E3,8.81E2,9.49E2,7.93E2,8.06E2,4.5E1],"tree_param":{"num_deleted":"0","num_feature":"3","num_nodes":"15","size_leaf_vector":"0"}},{"base_weights":[4.3503256E0,2.5384405E0,8.806226E0,1.6135706E0,4.251057E0,7.6004434E0,1.0853646E1,9.4064295E-1,2.3305054E0,3.5771196E0,5.257888E0,6.7903333E0,8.317204E0,1.0549239E1,1.7273722E1],"categories":[],"categories_nodes":[],"categories_segments":[],"categories_sizes":[],"default_left":[1,1,1,1,1,1,1,0,0,0,0,0,0,0,0],"id":23,"left_children":[1,3,5,7,9,11,13,-1,-1,-1,-1,-1,-1,-1,-1],"loss_changes":[6.4364438E4,8.975707E3,5.6079688E3,1.7751367E3,1.3301328E3,7.877969E2,1.4828594E3,0E0,0E0,0E0,0E0,0E0,0E0,0E0,0E0],"parents":[2147483647,0,0,1,1,2,2,3,3,4,4,5,5,6,6],"right_children":[2,4,6,8,10,12,14,-1,-1,-1,-1,-1,-1,-1,-1],"split_conditions":[6.8075E1,2.957E1,1.0871E2,1.884E1,5.29E1,8.454E1,1.3143E2,9.4064295E-2,2.3305054E-1,3.5771197E-1,5.257888E-1,6.7903334E-1,8.317205E-1,1.0549239E0,1.7273722E0],"split_indices":[0,2,0,0,2,0,0,0,0,0,0,0,0,0,0],"split_type":[0,0,0,0,0,0,0,0,0,0,0,0,0,0,0],"sum_hessian":[7.974E3,5.67E3,2.304E3,3.683E3,1.987E3,1.453E3,8.51E2,1.901E3,1.782E3,1.193E3,7.94E2,6.87E2,7.66E2,8.15E2,3.6E1],"tree_param":{"num_deleted":"0","num_feature":"3","num_nodes":"15","size_leaf_vector":"0"}},{"base_weights":[3.9165626E0,2.285666E0,7.942643E0,1.6279386E0,4.2875686E0,7.0178633E0,1.0197794E1,9.058186E-1,2.3193374E0,3.7183812E0,4.7784963E0,6.057823E0,7.661513E0,9.660859E0,1.3544729E1],"categories":[],"categories_nodes":[],"categories_segments":[],"categories_sizes":[],"default_left":[1,1,1,1,1,1,1,0,0,0,0,0,0,0,0],"id":24,"left_children":[1,3,5,7,9,11,13,-1,-1,-1,-1,-1,-1,-1,-1],"loss_changes":[5.2556773E4,7.498246E3,4.7418125E3,2.1407783E3,3.7594727E2,9.669844E2,1.0713984E3,0E0,0E0,0E0,0E0,0E0,0E0,0E0,0E0],"parents":[2147483647,0,0,1,1,2,2,3,3,4,4,5,5,6,6],"right_children":[2,4,6,8,10,12,14,-1,-1,-1,-1,-1,-1,-1,-1],"split_conditions":[6.8075E1,3.9785E1,1.10095E2,1.929E1,5.4595E1,8.3185E1,1.24915E2,9.058186E-2,2.3193374E-1,3.7183812E-1,4.7784963E-1,6.0578233E-1,7.661513E-1,9.660859E-1,1.354473E0],"split_indices":[0,0,2,0,0,2,0,0,0,0,0,0,0,0,0],"split_type":[0,0,0,0,0,0,0,0,0,0,0,0,0,0,0],"sum_hessian":[8.006E3,5.699E3,2.307E3,4.291E3,1.408E3,1.639E3,6.68E2,2.1E3,2.191E3,6.56E2,7.52E2,6.62E2,9.77E2,5.79E2,8.9E1],"tree_param":{"num_deleted":"0","num_feature":"3","num_nodes":"15","size_leaf_vector":"0"}},{"base_weights":[3.5246594E0,1.7154233E0,6.4541535E0,9.6362936E-1,2.5552528E0,5.361043E0,8.591941E0,-1.3724213E0,1.1549326E0,2.2470136E0,3.3543599E0,4.5243387E0,6.2458196E0,8.116432E0,1.1304001E1],"categories":[],"categories_nodes":[],"categories_segments":[],"categories_sizes":[],"default_left":[1,1,1,1,1,1,1,0,0,0,0,0,0,0,0],"id":25,"left_children":[1,3,5,7,9,11,13,-1,-1,-1,-1,-1,-1,-1,-1],"loss_changes":[4.2570312E4,3.1342266E3,7.1210234E3,1.1737883E3,5.703213E2,1.4760195E3,1.2442891E3,0E0,0E0,0E0,0E0,0E0,0E0,0E0,0E0],"parents":[2147483647,0,0,1,1,2,2,3,3,4,4,5,5,6,6],"right_children":[2,4,6,8,10,12,14,-1,-1,-1,-1,-1,-1,-1,-1],"split_conditions":[5.5059998E1,2.099E1,1.07025E2,1.2775E1,3.9905E1,7.4345E1,1.20655E2,-1.3724212E-1,1.1549326E-1,2.2470136E-1,3.35436E-1,4.5243388E-1,6.24582E-1,8.1164324E-1,1.1304001E0],"split_indices":[0,0,2,0,2,0,2,0,0,0,0,0,0,0,0],"split_type":[0,0,0,0,0,0,0,0,0,0,0,0,0,0,0],"sum_hessian":[8.033E3,4.967E3,3.066E3,2.622E3,2.345E3,2.031E3,1.035E3,1.98E2,2.424E3,1.695E3,6.5E2,1.047E3,9.84E2,8.84E2,1.51E2],"tree_param":{"num_deleted":"0","num_feature":"3","num_nodes":"15","size_leaf_vector":"0"}},{"base_weights":[3.1655133E0,1.8424696E0,6.372652E0,1.033296E0,2.9247262E0,5.580291E0,8.146877E0,-7.862173E-1,1.2204021E0,2.3166094E0,3.611636E0,4.895299E0,6.1295514E0,7.8836126E0,1.2922597E1],"categories":[],"categories_nodes":[],"categories_segments":[],"categories_sizes":[],"default_left":[1,1,1,1,1,1,1,0,0,0,0,0,0,0,0],"id":26,"left_children":[1,3,5,7,9,11,13,-1,-1,-1,-1,-1,-1,-1,-1],"loss_changes":[3.3933742E4,4.95801E3,3.238539E3,1.1050134E3,1.0037715E3,5.7875E2,8.0210547E2,0E0,0E0,0E0,0E0,0E0,0E0,0E0,0E0],"parents":[2147483647,0,0,1,1,2,2,3,3,4,4,5,5,6,6],"right_children":[2,4,6,8,10,12,14,-1,-1,-1,-1,-1,-1,-1,-1],"split_conditions":[6.7604996E1,2.6255001E1,1.0958E2,1.377E1,4.517E1,8.4485E1,1.30495E2,-7.862173E-2,1.2204021E-1,2.3166095E-1,3.611636E-1,4.895299E-1,6.1295515E-1,7.8836125E-1,1.2922597E0],"split_indices":[0,2,2,0,0,2,2,0,0,0,0,0,0,0,0],"split_type":[0,0,0,0,0,0,0,0,0,0,0,0,0,0,0],"sum_hessian":[7.999E3,5.664E3,2.335E3,3.242E3,2.422E3,1.617E3,7.18E2,3.02E2,2.94E3,1.287E3,1.135E3,7.24E2,8.93E2,6.83E2,3.5E1],"tree_param":{"num_deleted":"0","num_feature":"3","num_nodes":"15","size_leaf_vector":"0"}},{"base_weights":[2.8458517E0,1.6623803E0,5.808204E0,9.364527E-1,2.6377316E0,5.103695E0,7.386341E0,-1.3104699E0,1.0634311E0,2.1324847E0,3.2950675E0,4.2136116E0,5.4723825E0,7.162278E0,1.1458103E1],"categories":[],"categories_nodes":[],"categories_segments":[],"categories_sizes":[],"default_left":[1,1,1,1,1,1,1,0,0,0,0,0,0,0,0],"id":27,"left_children":[1,3,5,7,9,11,13,-1,-1,-1,-1,-1,-1,-1,-1],"loss_changes":[2.805825E4,4.0489033E3,2.5027969E3,9.377832E2,8.036719E2,4.9642578E2,5.593047E2,0E0,0E0,0E0,0E0,0E0,0E0,0E0,0E0],"parents":[2147483647,0,0,1,1,2,2,3,3,4,4,5,5,6,6],"right_children":[2,4,6,8,10,12,14,-1,-1,-1,-1,-1,-1,-1,-1],"split_conditions":[6.8075E1,2.6525002E1,1.09765E2,1.2505E1,4.7285E1,7.741E1,1.3143E2,-1.31047E-1,1.0634311E-1,2.1324848E-1,3.2950675E-1,4.2136118E-1,5.472383E-1,7.162278E-1,1.1458104E0],"split_indices":[0,0,0,0,0,2,0,0,0,0,0,0,0,0,0],"split_type":[0,0,0,0,0,0,0,0,0,0,0,0,0,0,0],"sum_hessian":[8.005E3,5.721E3,2.284E3,3.281E3,2.44E3,1.582E3,7.02E2,1.75E2,3.106E3,1.382E3,1.058E3,4.67E2,1.115E3,6.68E2,3.4E1],"tree_param":{"num_deleted":"0","num_feature":"3","num_nodes":"15","size_leaf_vector":"0"}},{"base_weights":[2.5696576E0,1.4798548E0,5.1772847E0,8.120014E-1,2.3246944E0,4.650302E0,7.072754E0,-3.5266256E-1,1.0192417E0,1.7993268E0,2.8515682E0,4.134345E0,5.3007655E0,6.7753525E0,1.0611974E1],"categories":[],"categories_nodes":[],"categories_segments":[],"categories_sizes":[],"default_left":[1,1,1,1,1,1,1,0,0,0,0,0,0,0,0],"id":28,"left_children":[1,3,5,7,9,11,13,-1,-1,-1,-1,-1,-1,-1,-1],"loss_changes":[2.2817672E4,3.1950332E3,2.3314531E3,7.64522E2,6.8715234E2,6.0064453E2,4.680664E2,0E0,0E0,0E0,0E0,0E0,0E0,0E0,0E0],"parents":[2147483647,0,0,1,1,2,2,3,3,4,4,5,5,6,6],"right_children":[2,4,6,8,10,12,14,-1,-1,-1,-1,-1,-1,-1,-1],"split_conditions":[6.7175E1,2.5755001E1,1.11915E2,1.4885E1,4.2864998E1,9.818E1,1.3143E2,-3.5266258E-2,1.0192417E-1,1.7993268E-1,2.8515682E-1,4.134345E-1,5.3007656E-1,6.7753524E-1,1.0611974E0],"split_indices":[2,2,0,0,2,1,0,0,0,0,0,0,0,0,0],"split_type":[0,0,0,0,0,0,0,0,0,0,0,0,0,0,0],"sum_hessian":[8.031E3,5.665E3,2.366E3,3.165E3,2.5E3,1.854E3,5.12E2,4.78E2,2.687E3,1.254E3,1.246E3,1.038E3,8.16E2,4.75E2,3.7E1],"tree_param":{"num_deleted":"0","num_feature":"3","num_nodes":"15","size_leaf_vector":"0"}},{"base_weights":[2.3179631E0,1.1121593E0,4.253061E0,5.511358E-1,1.6547011E0,3.397982E0,5.4119086E0,-1.5914254E0,6.588569E-1,1.4590667E0,2.1150668E0,3.0039256E0,4.0039577E0,5.0368505E0,7.215837E0],"categories":[],"categories_nodes":[],"categories_segments":[],"categories_sizes":[],"default_left":[1,1,1,1,1,1,1,0,0,0,0,0,0,0,0],"id":29,"left_children":[1,3,5,7,9,11,13,-1,-1,-1,-1,-1,-1,-1,-1],"loss_changes":[1.876005E4,1.5075889E3,3.040539E3,5.6373694E2,2.237832E2,4.1277734E2,8.4929297E2,0E0,0E0,0E0,0E0,0E0,0E0,0E0,0E0],"parents":[2147483647,0,0,1,1,2,2,3,3,4,4,5,5,6,6],"right_children":[2,4,6,8,10,12,14,-1,-1,-1,-1,-1,-1,-1,-1],"split_conditions":[5.5059998E1,2.019E1,9.9759995E1,1.1965E1,3.7035E1,7.453E1,1.17295E2,-1.5914254E-1,6.588569E-2,1.4590667E-1,2.1150668E-1,3.0039257E-1,4.0039578E-1,5.0368506E-1,7.215837E-1],"split_indices":[0,0,0,0,1,2,0,0,0,0,0,0,0,0,0],"split_type":[0,0,0,0,0,0,0,0,0,0,0,0,0,0,0],"sum_hessian":[8.041E3,4.955E3,3.086E3,2.437E3,2.518E3,1.778E3,1.308E3,1.16E2,2.321E3,1.77E3,7.48E2,1.081E3,6.97E2,1.086E3,2.22E2],"tree_param":{"num_deleted":"0","num_feature":"3","num_nodes":"15","size_leaf_vector":"0"}},{"base_weights":[2.0815556E0,1.0089465E0,3.8323123E0,2.7948505E-1,1.356713E0,3.1492484E0,5.0567756E0,-1.5094107E0,3.9736584E-1,1.153326E0,1.8040341E0,2.7279894E0,3.727333E0,4.6944613E0,6.6232753E0],"categories":[],"categories_nodes":[],"categories_segments":[],"categories_sizes":[],"default_left":[1,1,1,1,1,1,1,0,0,0,0,0,0,0,0],"id":30,"left_children":[1,3,5,7,9,11,13,-1,-1,-1,-1,-1,-1,-1,-1],"loss_changes":[1.4970332E4,1.2543335E3,2.5174883E3,3.3758032E2,3.0260938E2,4.639707E2,5.835801E2,0E0,0E0,0E0,0E0,0E0,0E0,0E0,0E0],"parents":[2147483647,0,0,1,1,2,2,3,3,4,4,5,5,6,6],"right_children":[2,4,6,8,10,12,14,-1,-1,-1,-1,-1,-1,-1,-1],"split_conditions":[5.5405E1,1.826E1,1.05925E2,1.1785E1,3.1695E1,7.6435E1,1.1817E2,-1.5094107E-1,3.9736584E-2,1.153326E-1,1.8040341E-1,2.7279896E-1,3.7273332E-1,4.6944615E-1,6.623275E-1],"split_indices":[2,0,2,0,0,0,2,0,0,0,0,0,0,0,0],"split_type":[0,0,0,0,0,0,0,0,0,0,0,0,0,0,0],"sum_hessian":[7.973E3,4.945E3,3.028E3,1.597E3,3.348E3,1.946E3,1.082E3,9.8E1,1.499E3,2.304E3,1.044E3,1.129E3,8.17E2,8.82E2,2E2],"tree_param":{"num_deleted":"0","num_feature":"3","num_nodes":"15","size_leaf_vector":"0"}},{"base_weights":[1.883932E0,9.0534335E-1,3.453608E0,1.3427353E-1,1.17918E0,2.8511202E0,4.572343E0,-1.3921363E0,2.6705962E-1,1.0273052E0,1.7353153E0,2.4532359E0,3.370748E0,4.434797E0,8.501271E0],"categories":[],"categories_nodes":[],"categories_segments":[],"categories_sizes":[],"default_left":[1,1,1,1,1,1,1,0,0,0,0,0,0,0,0],"id":31,"left_children":[1,3,5,7,9,11,13,-1,-1,-1,-1,-1,-1,-1,-1],"loss_changes":[1.2210143E4,1.0342517E3,2.0447617E3,2.6082327E2,3.035503E2,4.0254688E2,5.389121E2,0E0,0E0,0E0,0E0,0E0,0E0,0E0,0E0],"parents":[2147483647,0,0,1,1,2,2,3,3,4,4,5,5,6,6],"right_children":[2,4,6,8,10,12,14,-1,-1,-1,-1,-1,-1,-1,-1],"split_conditions":[5.5059998E1,1.759E1,1.0606E2,1.1785E1,3.6725E1,7.6195E1,1.3143E2,-1.3921364E-1,2.6705964E-2,1.0273053E-1,1.7353153E-1,2.4532358E-1,3.3707482E-1,4.434797E-1,8.5012716E-1],"split_indices":[0,0,0,0,1,2,0,0,0,0,0,0,0,0,0],"split_type":[0,0,0,0,0,0,0,0,0,0,0,0,0,0,0],"sum_hessian":[7.95E3,4.898E3,3.052E3,1.284E3,3.614E3,1.986E3,1.066E3,1.02E2,1.182E3,2.841E3,7.73E2,1.128E3,8.58E2,1.032E3,3.4E1],"tree_param":{"num_deleted":"0","num_feature":"3","num_nodes":"15","size_leaf_vector":"0"}},{"base_weights":[1.6927767E0,8.771109E-1,3.2361999E0,4.0999103E-1,1.3305805E0,2.8345373E0,4.582618E0,-6.830323E-1,5.255588E-1,1.1212616E0,1.7250724E0,2.3164263E0,3.205134E0,4.447036E0,9.8992605E0],"categories":[],"categories_nodes":[],"categories_segments":[],"categories_sizes":[],"default_left":[1,1,1,1,1,1,1,0,0,0,0,0,0,0,0],"id":32,"left_children":[1,3,5,7,9,11,13,-1,-1,-1,-1,-1,-1,-1,-1],"loss_changes":[1.0102492E4,1.1121694E3,1.487748E3,3.2739703E2,2.1812695E2,4.0347656E2,4.1443457E2,0E0,0E0,0E0,0E0,0E0,0E0,0E0,0E0],"parents":[2147483647,0,0,1,1,2,2,3,3,4,4,5,5,6,6],"right_children":[2,4,6,8,10,12,14,-1,-1,-1,-1,-1,-1,-1,-1],"split_conditions":[5.9625E1,2.0814999E1,1.10425E2,1.3305E1,4.0595E1,7.706E1,1.3559E2,-6.830323E-2,5.2555885E-2,1.12126164E-1,1.7250724E-1,2.3164263E-1,3.205134E-1,4.4470358E-1,9.8992604E-1],"split_indices":[2,0,0,0,0,0,0,0,0,0,0,0,0,0,0],"split_type":[0,0,0,0,0,0,0,0,0,0,0,0,0,0,0],"sum_hessian":[8.026E3,5.252E3,2.774E3,2.588E3,2.664E3,2.139E3,6.35E2,2.47E2,2.341E3,1.743E3,9.21E2,8.95E2,1.244E3,6.21E2,1.4E1],"tree_param":{"num_deleted":"0","num_feature":"3","num_nodes":"15","size_leaf_vector":"0"}},{"base_weights":[1.5301971E0,8.801815E-1,3.0853674E0,4.406422E-1,1.3722614E0,2.7917767E0,4.3855968E0,-1.2528706E-1,6.3043296E-1,1.1611881E0,1.8100744E0,2.5469763E0,3.2572649E0,4.2534184E0,8.056574E0],"categories":[],"categories_nodes":[],"categories_segments":[],"categories_sizes":[],"default_left":[1,1,1,1,1,1,1,0,0,0,0,0,0,0,0],"id":33,"left_children":[1,3,5,7,9,11,13,-1,-1,-1,-1,-1,-1,-1,-1],"loss_changes":[8.1298555E3,1.2268325E3,8.928496E2,3.2219598E2,2.4528125E2,2.1242773E2,1.7680469E2,0E0,0E0,0E0,0E0,0E0,0E0,0E0,0E0],"parents":[2147483647,0,0,1,1,2,2,3,3,4,4,5,5,6,6],"right_children":[2,4,6,8,10,12,14,-1,-1,-1,-1,-1,-1,-1,-1],"split_conditions":[6.7604996E1,2.4724998E1,1.1309E2,1.609E1,5.1305E1,1.05925E2,1.3559E2,-1.2528705E-2,6.30433E-2,1.1611881E-1,1.8100744E-1,2.5469765E-1,3.2572648E-1,4.2534184E-1,8.056574E-1],"split_indices":[0,0,0,0,0,2,0,0,0,0,0,0,0,0,0],"split_type":[0,0,0,0,0,0,0,0,0,0,0,0,0,0,0],"sum_hessian":[8.044E3,5.674E3,2.37E3,2.998E3,2.676E3,1.936E3,4.34E2,7.53E2,2.245E3,1.808E3,8.68E2,1.273E3,6.63E2,4.21E2,1.3E1],"tree_param":{"num_deleted":"0","num_feature":"3","num_nodes":"15","size_leaf_vector":"0"}},{"base_weights":[1.3599865E0,7.831632E-1,2.79907E0,3.223199E-1,1.1550747E0,2.4565501E0,3.7434294E0,-8.8700986E-1,4.0478876E-1,8.9770263E-1,1.4807446E0,2.1980002E0,2.7243338E0,3.6357346E0,8.068458E0],"categories":[],"categories_nodes":[],"categories_segments":[],"categories_sizes":[],"default_left":[1,1,1,1,1,1,1,0,0,0,0,0,0,0,0],"id":34,"left_children":[1,3,5,7,9,11,13,-1,-1,-1,-1,-1,-1,-1,-1],"loss_changes":[6.668466E3,9.8308057E2,7.3444336E2,2.5607205E2,2.6479395E2,1.1102051E2,2.5479297E2,0E0,0E0,0E0,0E0,0E0,0E0,0E0,0E0],"parents":[2147483647,0,0,1,1,2,2,3,3,4,4,5,5,6,6],"right_children":[2,4,6,8,10,12,14,-1,-1,-1,-1,-1,-1,-1,-1],"split_conditions":[6.8524994E1,2.0724998E1,1.10685E2,1.2325E1,4.0585E1,9.3655E1,1.3559E2,-8.870099E-2,4.0478878E-2,8.9770265E-2,1.4807446E-1,2.1980003E-1,2.7243337E-1,3.6357346E-1,8.068458E-1],"split_indices":[1,0,2,0,0,0,0,0,0,0,0,0,0,0,0],"split_type":[0,0,0,0,0,0,0,0,0,0,0,0,0,0,0],"sum_hessian":[8.035E3,5.737E3,2.298E3,2.563E3,3.174E3,1.689E3,6.09E2,1.63E2,2.4E3,1.775E3,1.399E3,8.64E2,8.25E2,5.96E2,1.3E1],"tree_param":{"num_deleted":"0","num_feature":"3","num_nodes":"15","size_leaf_vector":"0"}},{"base_weights":[1.2348028E0,7.202008E-1,2.5312536E0,3.795683E-1,1.1416528E0,2.288278E0,3.639427E0,-4.1598625E-2,5.718425E-1,9.6626353E-1,1.5046386E0,1.9629966E0,2.477807E0,3.5122225E0,6.932107E0],"categories":[],"categories_nodes":[],"categories_segments":[],"categories_sizes":[],"default_left":[1,1,1,1,1,1,1,0,0,0,0,0,0,0,0],"id":35,"left_children":[1,3,5,7,9,11,13,-1,-1,-1,-1,-1,-1,-1,-1],"loss_changes":[5.2960664E3,8.1584985E2,5.9911914E2,2.5478537E2,1.6031592E2,1.0937402E2,1.4486572E2,0E0,0E0,0E0,0E0,0E0,0E0,0E0,0E0],"parents":[2147483647,0,0,1,1,2,2,3,3,4,4,5,5,6,6],"right_children":[2,4,6,8,10,12,14,-1,-1,-1,-1,-1,-1,-1,-1],"split_conditions":[6.8835E1,2.5935001E1,1.13315E2,1.6765E1,5.4114998E1,8.583E1,1.3559E2,-4.1598626E-3,5.718425E-2,9.6626356E-2,1.5046386E-1,1.9629966E-1,2.4778071E-1,3.5122225E-1,6.932107E-1],"split_indices":[2,0,2,0,0,2,0,0,0,0,0,0,0,0,0],"split_type":[0,0,0,0,0,0,0,0,0,0,0,0,0,0,0],"sum_hessian":[7.94E3,5.685E3,2.255E3,3.145E3,2.54E3,1.852E3,4.03E2,9.86E2,2.159E3,1.715E3,8.25E2,6.86E2,1.166E3,3.9E2,1.3E1],"tree_param":{"num_deleted":"0","num_feature":"3","num_nodes":"15","size_leaf_vector":"0"}},{"base_weights":[1.1136754E0,6.663959E-1,2.3339384E0,3.7433714E-1,1.1149604E0,2.1360142E0,3.5061944E0,-7.254616E-2,5.3196794E-1,9.1795504E-1,1.3782358E0,1.873398E0,2.336105E0,3.2507854E0,5.60751E0],"categories":[],"categories_nodes":[],"categories_segments":[],"categories_sizes":[],"default_left":[1,1,1,1,1,1,1,0,0,0,0,0,0,0,0],"id":36,"left_children":[1,3,5,7,9,11,13,-1,-1,-1,-1,-1,-1,-1,-1],"loss_changes":[4.359922E3,7.6584375E2,4.897246E2,2.4968704E2,1.183396E2,9.2100586E1,1.4707324E2,0E0,0E0,0E0,0E0,0E0,0E0,0E0,0E0],"parents":[2147483647,0,0,1,1,2,2,3,3,4,4,5,5,6,6],"right_children":[2,4,6,8,10,12,14,-1,-1,-1,-1,-1,-1,-1,-1],"split_conditions":[7.1315E1,2.8494999E1,1.15315E2,1.654E1,5.3230003E1,9.6985E1,1.3143E2,-7.2546164E-3,5.3196795E-2,9.1795504E-2,1.3782358E-1,1.873398E-1,2.3361051E-1,3.2507855E-1,5.60751E-1],"split_indices":[0,1,0,0,2,2,0,0,0,0,0,0,0,0,0],"split_type":[0,0,0,0,0,0,0,0,0,0,0,0,0,0,0],"sum_hessian":[7.99E3,5.848E3,2.142E3,3.543E3,2.305E3,1.835E3,3.07E2,9.24E2,2.619E3,1.321E3,9.84E2,7.98E2,1.037E3,2.76E2,3.1E1],"tree_param":{"num_deleted":"0","num_feature":"3","num_nodes":"15","size_leaf_vector":"0"}},{"base_weights":[1.0099276E0,4.84505E-1,1.8533555E0,3.2303117E-2,6.477981E-1,1.5783734E0,2.6009667E0,-1.4913707E0,1.00320205E-1,5.424269E-1,9.1279835E-1,1.2772744E0,1.8149275E0,2.4008794E0,3.9052413E0],"categories":[],"categories_nodes":[],"categories_segments":[],"categories_sizes":[],"default_left":[1,1,1,1,1,1,1,0,0,0,0,0,0,0,0],"id":37,"left_children":[1,3,5,7,9,11,13,-1,-1,-1,-1,-1,-1,-1,-1],"loss_changes":[3.5439077E3,3.6401758E2,6.270244E2,1.3580894E2,1.00643555E2,1.5772754E2,2.056626E2,0E0,0E0,0E0,0E0,0E0,0E0,0E0,0E0],"parents":[2147483647,0,0,1,1,2,2,3,3,4,4,5,5,6,6],"right_children":[2,4,6,8,10,12,14,-1,-1,-1,-1,-1,-1,-1,-1],"split_conditions":[5.5059998E1,1.759E1,1.0885E2,1.0995001E1,3.1654999E1,7.2765E1,1.23634995E2,-1.4913706E-1,1.00320205E-2,5.424269E-2,9.1279835E-2,1.2772743E-1,1.8149275E-1,2.4008794E-1,3.9052412E-1],"split_indices":[0,0,2,0,0,0,2,0,0,0,0,0,0,0,0],"split_type":[0,0,0,0,0,0,0,0,0,0,0,0,0,0,0],"sum_hessian":[7.998E3,4.929E3,3.069E3,1.308E3,3.621E3,2.246E3,8.23E2,5.5E1,1.253E3,2.593E3,1.028E3,9.91E2,1.255E3,7.16E2,1.07E2],"tree_param":{"num_deleted":"0","num_feature":"3","num_nodes":"15","size_leaf_vector":"0"}},{"base_weights":[8.9115167E-1,5.3429353E-1,1.8773185E0,2.0175989E-1,7.9280216E-1,1.7256079E0,2.7899213E0,-1.1914265E0,2.4544366E-1,5.949556E-1,1.0146446E0,1.6080225E0,2.0103843E0,2.6568954E0,5.522347E0],"categories":[],"categories_nodes":[],"categories_segments":[],"categories_sizes":[],"default_left":[1,1,1,1,1,1,1,0,0,0,0,0,0,0,0],"id":38,"left_children":[1,3,5,7,9,11,13,-1,-1,-1,-1,-1,-1,-1,-1],"loss_changes":[2.8020527E3,5.027224E2,2.881494E2,1.5609305E2,1.4384082E2,5.761035E1,9.437256E1,0E0,0E0,0E0,0E0,0E0,0E0,0E0,0E0],"parents":[2147483647,0,0,1,1,2,2,3,3,4,4,5,5,6,6],"right_children":[2,4,6,8,10,12,14,-1,-1,-1,-1,-1,-1,-1,-1],"split_conditions":[7.1315E1,2.0835E1,1.15315E2,1.1345E1,4.0585E1,1.08585E2,1.35525E2,-1.1914265E-1,2.4544366E-2,5.9495565E-2,1.01464465E-1,1.6080225E-1,2.0103844E-1,2.6568955E-1,5.522347E-1],"split_indices":[0,0,0,0,0,0,0,0,0,0,0,0,0,0,0],"split_type":[0,0,0,0,0,0,0,0,0,0,0,0,0,0,0],"sum_hessian":[7.964E3,5.849E3,2.115E3,2.559E3,3.29E3,1.816E3,2.99E2,7.7E1,2.482E3,1.741E3,1.549E3,1.29E3,5.26E2,2.87E2,1.2E1],"tree_param":{"num_deleted":"0","num_feature":"3","num_nodes":"15","size_leaf_vector":"0"}},{"base_weights":[8.143985E-1,4.8032954E-1,1.7241122E0,1.1187982E-1,6.7897207E-1,1.5760169E0,2.693983E0,-1.2630097E0,1.5468085E-1,5.1271904E-1,9.2719626E-1,1.4693601E0,1.900464E0,2.5478945E0,5.53214E0],"categories":[],"categories_nodes":[],"categories_segments":[],"categories_sizes":[],"default_left":[1,1,1,1,1,1,1,0,0,0,0,0,0,0,0],"id":39,"left_children":[1,3,5,7,9,11,13,-1,-1,-1,-1,-1,-1,-1,-1],"loss_changes":[2.4289092E3,4.2801123E2,3.0413525E2,1.2083111E2,1.5634302E2,6.174463E1,1.03242676E2,0E0,0E0,0E0,0E0,0E0,0E0,0E0,0E0],"parents":[2147483647,0,0,1,1,2,2,3,3,4,4,5,5,6,6],"right_children":[2,4,6,8,10,12,14,-1,-1,-1,-1,-1,-1,-1,-1],"split_conditions":[7.1380005E1,1.906E1,1.16115005E2,1.0995001E1,4.0595E1,1.09515E2,1.3642001E2,-1.2630098E-1,1.5468085E-2,5.1271904E-2,9.271963E-2,1.4693601E-1,1.9004641E-1,2.5478944E-1,5.53214E-1],"split_indices":[2,0,2,0,0,0,2,0,0,0,0,0,0,0,0],"split_type":[0,0,0,0,0,0,0,0,0,0,0,0,0,0,0],"sum_hessian":[7.994E3,5.848E3,2.146E3,2.049E3,3.799E3,1.864E3,2.82E2,6.1E1,1.988E3,2.277E3,1.522E3,1.407E3,4.57E2,2.7E2,1.2E1],"tree_param":{"num_deleted":"0","num_feature":"3","num_nodes":"15","size_leaf_vector":"0"}},{"base_weights":[7.320438E-1,3.461428E-1,1.3553286E0,-4.106072E-2,4.5847288E-1,1.1853775E0,2.1333208E0,-1.2390348E0,2.1254621E-2,3.593406E-1,5.904907E-1,9.5279074E-1,1.3835921E0,2.050381E0,4.9382305E0],"categories":[],"categories_nodes":[],"categories_segments":[],"categories_sizes":[],"default_left":[1,1,1,1,1,1,1,0,0,0,0,0,0,0,0],"id":40,"left_children":[1,3,5,7,9,11,13,-1,-1,-1,-1,-1,-1,-1,-1],"loss_changes":[1.9232593E3,2.1492566E2,4.0180176E2,8.303954E1,4.9911865E1,1.1449048E2,1.17128174E2,0E0,0E0,0E0,0E0,0E0,0E0,0E0,0E0],"parents":[2147483647,0,0,1,1,2,2,3,3,4,4,5,5,6,6],"right_children":[2,4,6,8,10,12,14,-1,-1,-1,-1,-1,-1,-1,-1],"split_conditions":[5.5059998E1,1.699E1,1.1146E2,1.0875E1,2.679E1,7.6465E1,1.3559E2,-1.23903476E-1,2.1254623E-3,3.593406E-2,5.904907E-2,9.5279075E-2,1.3835922E-1,2.050381E-1,4.9382305E-1],"split_indices":[0,0,0,0,0,0,0,0,0,0,0,0,0,0,0],"split_type":[0,0,0,0,0,0,0,0,0,0,0,0,0,0,0],"sum_hessian":[7.997E3,4.94E3,3.057E3,1.111E3,3.829E3,2.511E3,5.46E2,5.4E1,1.057E3,2.189E3,1.64E3,1.158E3,1.353E3,5.32E2,1.4E1],"tree_param":{"num_deleted":"0","num_feature":"3","num_nodes":"15","size_leaf_vector":"0"}},{"base_weights":[6.4595294E-1,3.2642788E-1,1.2505544E0,-6.9519845E-3,4.391817E-1,1.1348734E0,2.260996E0,-9.4167364E-1,5.0956722E-2,3.7714434E-1,6.4327705E-1,9.2378384E-1,1.3247929E0,2.1352396E0,4.6989393E0],"categories":[],"categories_nodes":[],"categories_segments":[],"categories_sizes":[],"default_left":[1,1,1,1,1,1,1,0,0,0,0,0,0,0,0],"id":41,"left_children":[1,3,5,7,9,11,13,-1,-1,-1,-1,-1,-1,-1,-1],"loss_changes":[1.5390857E3,1.9603412E2,3.1946338E2,7.1443504E1,4.9099365E1,9.7958984E1,7.6424194E1,0E0,0E0,0E0,0E0,0E0,0E0,0E0,0E0],"parents":[2147483647,0,0,1,1,2,2,3,3,4,4,5,5,6,6],"right_children":[2,4,6,8,10,12,14,-1,-1,-1,-1,-1,-1,-1,-1],"split_conditions":[5.9215E1,1.759E1,1.15765E2,1.1219999E1,4.0585E1,8.583E1,1.3642001E2,-9.416737E-2,5.0956723E-3,3.7714433E-2,6.432771E-2,9.2378385E-2,1.324793E-1,2.1352397E-1,4.6989393E-1],"split_indices":[1,0,0,0,0,2,2,0,0,0,0,0,0,0,0],"split_type":[0,0,0,0,0,0,0,0,0,0,0,0,0,0,0],"sum_hessian":[7.968E3,5.214E3,2.754E3,1.318E3,3.896E3,2.473E3,2.81E2,7.6E1,1.242E3,2.99E3,9.06E2,1.174E3,1.299E3,2.69E2,1.2E1],"tree_param":{"num_deleted":"0","num_feature":"3","num_nodes":"15","size_leaf_vector":"0"}},{"base_weights":[5.865752E-1,2.7738586E-1,1.0790242E0,-3.7004778E-1,3.2253462E-1,9.554299E-1,1.822073E0,-1.287082E0,-2.7802035E-1,1.7187773E-1,4.2737508E-1,7.670961E-1,1.1037701E0,1.7290943E0,4.5211325E0],"categories":[],"categories_nodes":[],"categories_segments":[],"categories_sizes":[],"default_left":[1,1,1,1,1,1,1,0,0,0,0,0,0,0,0],"id":42,"left_children":[1,3,5,7,9,11,13,-1,-1,-1,-1,-1,-1,-1,-1],"loss_changes":[1.218085E3,1.4384729E2,2.816665E2,2.6732094E1,7.253592E1,7.313208E1,1.0235181E2,0E0,0E0,0E0,0E0,0E0,0E0,0E0,0E0],"parents":[2147483647,0,0,1,1,2,2,3,3,4,4,5,5,6,6],"right_children":[2,4,6,8,10,12,14,-1,-1,-1,-1,-1,-1,-1,-1],"split_conditions":[5.4114998E1,1.396E1,1.13065E2,1.0295E1,1.9535E1,7.6195E1,1.3559E2,-1.287082E-1,-2.7802035E-2,1.7187772E-2,4.273751E-2,7.670961E-2,1.1037701E-1,1.7290942E-1,4.5211324E-1],"split_indices":[0,0,2,0,0,2,0,0,0,0,0,0,0,0,0],"split_type":[0,0,0,0,0,0,0,0,0,0,0,0,0,0,0],"sum_hessian":[8.001E3,4.916E3,3.085E3,3.2E2,4.596E3,2.647E3,4.38E2,2.8E1,2.92E2,1.887E3,2.709E3,1.169E3,1.478E3,4.25E2,1.3E1],"tree_param":{"num_deleted":"0","num_feature":"3","num_nodes":"15","size_leaf_vector":"0"}},{"base_weights":[5.3168064E-1,2.5197843E-1,9.9129367E-1,5.432426E-2,3.777166E-1,8.506475E-1,1.5387487E0,-5.5024993E-1,1.0757808E-1,3.3691636E-1,5.2111256E-1,7.3826957E-1,1.0160686E0,1.3707386E0,2.330998E0],"categories":[],"categories_nodes":[],"categories_segments":[],"categories_sizes":[],"default_left":[1,1,1,1,1,1,1,0,0,0,0,0,0,0,0],"id":43,"left_children":[1,3,5,7,9,11,13,-1,-1,-1,-1,-1,-1,-1,-1],"loss_changes":[1.02266064E3,1.229505E2,2.3045312E2,6.203627E1,1.7516632E1,4.3809326E1,7.853186E1,0E0,0E0,0E0,0E0,0E0,0E0,0E0,0E0],"parents":[2147483647,0,0,1,1,2,2,3,3,4,4,5,5,6,6],"right_children":[2,4,6,8,10,12,14,-1,-1,-1,-1,-1,-1,-1,-1],"split_conditions":[5.5405E1,1.8855E1,1.10505005E2,1.2325E1,3.9905E1,8.4585E1,1.23634995E2,-5.5024993E-2,1.0757808E-2,3.3691637E-2,5.2111257E-2,7.382696E-2,1.0160686E-1,1.3707386E-1,2.330998E-1],"split_indices":[2,0,2,0,2,0,2,0,0,0,0,0,0,0,0],"split_type":[0,0,0,0,0,0,0,0,0,0,0,0,0,0,0],"sum_hessian":[7.956E3,4.947E3,3.009E3,1.924E3,3.023E3,2.396E3,6.13E2,1.55E2,1.769E3,2.356E3,6.67E2,1.43E3,9.66E2,5.08E2,1.05E2],"tree_param":{"num_deleted":"0","num_feature":"3","num_nodes":"15","size_leaf_vector":"0"}},{"base_weights":[4.704929E-1,2.769354E-1,9.967899E-1,1.5099235E-1,4.7171348E-1,8.964606E-1,1.6913158E0,-3.1967282E-1,1.9644238E-1,4.8235422E-1,-3.2062086E-1,8.0358815E-1,1.021535E0,1.5702584E0,4.163194E0],"categories":[],"categories_nodes":[],"categories_segments":[],"categories_sizes":[],"default_left":[1,1,1,1,1,1,1,0,0,0,0,0,0,0,0],"id":44,"left_children":[1,3,5,7,9,11,13,-1,-1,-1,-1,-1,-1,-1,-1],"loss_changes":[8.13655E2,1.4326315E2,1.4815918E2,7.60035E1,1.9495422E1,2.1005615E1,7.42572E1,0E0,0E0,0E0,0E0,0E0,0E0,0E0,0E0],"parents":[2147483647,0,0,1,1,2,2,3,3,4,4,5,5,6,6],"right_children":[2,4,6,8,10,12,14,-1,-1,-1,-1,-1,-1,-1,-1],"split_conditions":[7.1315E1,2.8525002E1,1.16045E2,1.3915E1,7.07E1,1.0606E2,1.3642001E2,-3.1967282E-2,1.9644238E-2,4.8235424E-2,-3.2062087E-2,8.035882E-2,1.021535E-1,1.5702584E-1,4.1631943E-1],"split_indices":[0,1,2,0,0,0,2,0,0,0,0,0,0,0,0],"split_type":[0,0,0,0,0,0,0,0,0,0,0,0,0,0,0],"sum_hessian":[7.989E3,5.842E3,2.147E3,3.549E3,2.293E3,1.878E3,2.69E2,3.12E2,3.237E3,2.263E3,3E1,1.082E3,7.96E2,2.58E2,1.1E1],"tree_param":{"num_deleted":"0","num_feature":"3","num_nodes":"15","size_leaf_vector":"0"}},{"base_weights":[4.3157765E-1,2.1591388E-1,8.239923E-1,-5.116174E-2,2.8548148E-1,6.903131E-1,1.1482434E0,-8.137382E-1,-7.903271E-3,2.21979E-1,3.846518E-1,5.821494E-1,7.968213E-1,1.0759352E0,2.1567023E0],"categories":[],"categories_nodes":[],"categories_segments":[],"categories_sizes":[],"default_left":[1,1,1,1,1,1,1,0,0,0,0,0,0,0,0],"id":45,"left_children":[1,3,5,7,9,11,13,-1,-1,-1,-1,-1,-1,-1,-1],"loss_changes":[6.730508E2,9.542192E1,1.2148547E2,3.5026707E1,2.5570862E1,2.2576721E1,5.761963E1,0E0,0E0,0E0,0E0,0E0,0E0,0E0,0E0],"parents":[2147483647,0,0,1,1,2,2,3,3,4,4,5,5,6,6],"right_children":[2,4,6,8,10,12,14,-1,-1,-1,-1,-1,-1,-1,-1],"split_conditions":[5.86E1,1.696E1,1.089E2,1.0875E1,2.8675E1,7.7435E1,1.27565E2,-8.1373826E-2,-7.9032715E-4,2.21979E-2,3.8465183E-2,5.821494E-2,7.9682134E-2,1.0759353E-1,2.1567023E-1],"split_indices":[0,0,2,1,2,0,2,0,0,0,0,0,0,0,0],"split_type":[0,0,0,0,0,0,0,0,0,0,0,0,0,0,0],"sum_hessian":[7.954E3,5.134E3,2.82E3,1.061E3,4.073E3,1.999E3,8.21E2,5.6E1,1.005E3,2.485E3,1.588E3,9.95E2,1.004E3,7.68E2,5.3E1],"tree_param":{"num_deleted":"0","num_feature":"3","num_nodes":"15","size_leaf_vector":"0"}},{"base_weights":[3.906296E-1,1.738531E-1,7.258866E-1,-2.0119011E-1,2.1353814E-1,6.59863E-1,1.2575015E0,-1.07745E0,-1.5128562E-1,1.1281888E-1,2.760989E-1,5.274074E-1,7.631193E-1,1.179214E0,3.178178E0],"categories":[],"categories_nodes":[],"categories_segments":[],"categories_sizes":[],"default_left":[1,1,1,1,1,1,1,0,0,0,0,0,0,0,0],"id":46,"left_children":[1,3,5,7,9,11,13,-1,-1,-1,-1,-1,-1,-1,-1],"loss_changes":[5.8309753E2,7.2600525E1,1.09767456E2,2.0258583E1,2.7750275E1,3.796118E1,4.8428894E1,0E0,0E0,0E0,0E0,0E0,0E0,0E0,0E0],"parents":[2147483647,0,0,1,1,2,2,3,3,4,4,5,5,6,6],"right_children":[2,4,6,8,10,12,14,-1,-1,-1,-1,-1,-1,-1,-1],"split_conditions":[5.3230003E1,1.4785E1,1.1472E2,1.0205E1,1.9415E1,7.6285E1,1.3642001E2,-1.0774501E-1,-1.5128562E-2,1.1281888E-2,2.760989E-2,5.274074E-2,7.631193E-2,1.17921405E-1,3.178178E-1],"split_indices":[2,0,0,0,0,2,2,0,0,0,0,0,0,0,0],"split_type":[0,0,0,0,0,0,0,0,0,0,0,0,0,0,0],"sum_hessian":[8.024E3,4.874E3,3.15E3,4.66E2,4.408E3,2.804E3,3.46E2,2.4E1,4.42E2,1.69E3,2.718E3,1.231E3,1.573E3,3.34E2,1.2E1],"tree_param":{"num_deleted":"0","num_feature":"3","num_nodes":"15","size_leaf_vector":"0"}},{"base_weights":[3.4881818E-1,1.6514352E-1,6.4744645E-1,-8.852566E-2,2.1109377E-1,5.280427E-1,9.3310636E-1,-7.637757E-1,-4.4959184E-2,1.3127998E-1,2.698826E-1,2.6262696E0,5.229055E-1,8.4215206E-1,1.5959176E0],"categories":[],"categories_nodes":[],"categories_segments":[],"categories_sizes":[],"default_left":[1,1,1,1,1,1,1,0,0,0,0,0,0,0,0],"id":47,"left_children":[1,3,5,7,9,11,13,-1,-1,-1,-1,-1,-1,-1,-1],"loss_changes":[4.3836743E2,5.7728348E1,1.0333472E2,2.2323544E1,1.963411E1,2.1790527E1,5.2671936E1,0E0,0E0,0E0,0E0,0E0,0E0,0E0,0E0],"parents":[2147483647,0,0,1,1,2,2,3,3,4,4,5,5,6,6],"right_children":[2,4,6,8,10,12,14,-1,-1,-1,-1,-1,-1,-1,-1],"split_conditions":[5.5405E1,1.614E1,1.08265E2,1.063E1,2.0685001E1,5.358E1,1.23634995E2,-7.637757E-2,-4.4959183E-3,1.31279975E-2,2.6988259E-2,2.6262698E-1,5.2290555E-2,8.421521E-2,1.5959176E-1],"split_indices":[2,0,2,0,0,1,2,0,0,0,0,0,0,0,0],"split_type":[0,0,0,0,0,0,0,0,0,0,0,0,0,0,0],"sum_hessian":[7.993E3,4.95E3,3.043E3,7.59E2,4.191E3,2.148E3,8.95E2,4.5E1,7.14E2,1.779E3,2.412E3,4E0,2.144E3,7.89E2,1.06E2],"tree_param":{"num_deleted":"0","num_feature":"3","num_nodes":"15","size_leaf_vector":"0"}},{"base_weights":[3.071531E-1,1.8130128E-1,6.6562814E-1,4.0883515E-3,2.4993914E-1,6.4123714E-1,2.3060923E0,-4.063013E-1,4.1196797E-2,1.831549E-1,3.5811964E-1,6.099636E-1,1.1249595E0,2.714092E0,-2.7672425E-1],"categories":[],"categories_nodes":[],"categories_segments":[],"categories_sizes":[],"default_left":[1,1,1,1,1,1,1,0,0,0,0,0,0,0,0],"id":48,"left_children":[1,3,5,7,9,11,13,-1,-1,-1,-1,-1,-1,-1,-1],"loss_changes":[3.6003027E2,7.1885345E1,8.150726E1,2.5159689E1,3.0711823E1,3.025E1,3.2364716E1,0E0,0E0,0E0,0E0,0E0,0E0,0E0,0E0],"parents":[2147483647,0,0,1,1,2,2,3,3,4,4,5,5,6,6],"right_children":[2,4,6,8,10,12,14,-1,-1,-1,-1,-1,-1,-1,-1],"split_conditions":[7.2805E1,1.839E1,1.3306E2,1.2125E1,4.064E1,1.20655E2,1.4183499E2,-4.063013E-2,4.11968E-3,1.831549E-2,3.5811964E-2,6.099636E-2,1.1249595E-1,2.714092E-1,-2.7672425E-2],"split_indices":[0,0,1,0,0,1,0,0,0,0,0,0,0,0,0],"split_type":[0,0,0,0,0,0,0,0,0,0,0,0,0,0,0],"sum_hessian":[7.982E3,5.909E3,2.073E3,1.65E3,4.259E3,2.044E3,2.9E1,1.36E2,1.514E3,2.635E3,1.624E3,1.922E3,1.22E2,2.5E1,4E0],"tree_param":{"num_deleted":"0","num_feature":"3","num_nodes":"15","size_leaf_vector":"0"}},{"base_weights":[2.8703773E-1,1.6992484E-1,6.1101604E-1,7.248969E-2,2.8579706E-1,5.694883E-1,1.3593708E0,-2.7619222E-1,9.924179E-2,2.9616648E-1,-1.0442338E0,4.890396E-1,7.101272E-1,3.9107378E0,1.1232381E0],"categories":[],"categories_nodes":[],"categories_segments":[],"categories_sizes":[],"default_left":[1,1,1,1,1,1,1,0,0,0,0,0,0,0,0],"id":49,"left_children":[1,3,5,7,9,11,13,-1,-1,-1,-1,-1,-1,-1,-1],"loss_changes":[3.0362213E2,6.637593E1,6.52655E1,2.9839615E1,3.7353592E1,2.2450806E1,6.2480515E1,0E0,0E0,0E0,0E0,0E0,0E0,0E0,0E0],"parents":[2147483647,0,0,1,1,2,2,3,3,4,4,5,5,6,6],"right_children":[2,4,6,8,10,12,14,-1,-1,-1,-1,-1,-1,-1,-1],"split_conditions":[7.221E1,2.6E1,1.23634995E2,1.3139999E1,7.3520004E1,1.0885E2,1.2221001E2,-2.7619222E-2,9.92418E-3,2.9616648E-2,-1.0442338E-1,4.890396E-2,7.101272E-2,3.910738E-1,1.1232381E-1],"split_indices":[0,0,2,2,1,2,1,0,0,0,0,0,0,0,0],"split_type":[0,0,0,0,0,0,0,0,0,0,0,0,0,0,0],"sum_hessian":[8.004E3,5.88E3,2.124E3,3.195E3,2.685E3,2.014E3,1.1E2,2.27E2,2.968E3,2.665E3,2E1,1.284E3,7.3E2,8E0,1.02E2],"tree_param":{"num_deleted":"0","num_feature":"3","num_nodes":"15","size_leaf_vector":"0"}},{"base_weights":[2.5347725E-1,1.4812186E-1,5.431719E-1,2.0396411E-2,2.131555E-1,5.2916914E-1,2.4682791E0,-5.6446785E-1,3.785808E-2,1.6429852E-1,3.0125582E-1,4.5834386E-1,7.027352E-1,3.281068E0,-5.871582E-1],"categories":[],"categories_nodes":[],"categories_segments":[],"categories_sizes":[],"default_left":[1,1,1,1,1,1,1,0,0,0,0,0,0,0,0],"id":50,"left_children":[1,3,5,7,9,11,13,-1,-1,-1,-1,-1,-1,-1,-1],"loss_changes":[2.4201123E2,4.832258E1,5.570752E1,2.0079126E1,1.654364E1,2.5505188E1,3.9177887E1,0E0,0E0,0E0,0E0,0E0,0E0,0E0,0E0],"parents":[2147483647,0,0,1,1,2,2,3,3,4,4,5,5,6,6],"right_children":[2,4,6,8,10,12,14,-1,-1,-1,-1,-1,-1,-1,-1],"split_conditions":[7.1600006E1,1.9005001E1,1.3559E2,1.0875E1,4.4295E1,1.10475006E2,1.4245999E2,-5.6446787E-2,3.785808E-3,1.6429853E-2,3.0125583E-2,4.583439E-2,7.027352E-2,3.2810682E-1,-5.871582E-2],"split_indices":[2,2,0,1,2,1,0,0,0,0,0,0,0,0,0],"split_type":[0,0,0,0,0,0,0,0,0,0,0,0,0,0,0],"sum_hessian":[7.931E3,5.817E3,2.114E3,1.963E3,3.854E3,2.1E3,1.4E1,5.6E1,1.907E3,2.481E3,1.373E3,1.494E3,6.06E2,1.1E1,3E0],"tree_param":{"num_deleted":"0","num_feature":"3","num_nodes":"15","size_leaf_vector":"0"}},{"base_weights":[2.2984396E-1,9.3068056E-2,4.2108053E-1,-1.8364099E-1,1.135861E-1,3.5055155E-1,6.641632E-1,-7.8694344E-1,-1.3893569E-1,5.2843366E-2,1.4384478E-1,-1.1276684E0,3.5270664E-1,6.48016E-1,3.5055428E0],"categories":[],"categories_nodes":[],"categories_segments":[],"categories_sizes":[],"default_left":[1,1,1,1,1,1,1,0,0,0,0,0,0,0,0],"id":51,"left_children":[1,3,5,7,9,11,13,-1,-1,-1,-1,-1,-1,-1,-1],"loss_changes":[2.089255E2,2.6472458E1,5.687506E1,8.575269E0,7.965626E0,8.629639E0,3.2046875E1,0E0,0E0,0E0,0E0,0E0,0E0,0E0,0E0],"parents":[2147483647,0,0,1,1,2,2,3,3,4,4,5,5,6,6],"right_children":[2,4,6,8,10,12,14,-1,-1,-1,-1,-1,-1,-1,-1],"split_conditions":[4.7785E1,1.396E1,1.09365005E2,1.016E1,1.8625E1,4.5065002E1,1.43055E2,-7.869434E-2,-1.3893569E-2,5.284337E-3,1.4384478E-2,-1.1276684E-1,3.5270665E-2,6.4801596E-2,3.505543E-1],"split_indices":[0,0,0,0,2,2,2,0,0,0,0,0,0,0,0],"split_type":[0,0,0,0,0,0,0,0,0,0,0,0,0,0,0],"sum_hessian":[7.988E3,4.658E3,3.33E3,3.21E2,4.337E3,2.583E3,7.47E2,2.1E1,3E2,1.443E3,2.894E3,3E0,2.58E3,7.44E2,3E0],"tree_param":{"num_deleted":"0","num_feature":"3","num_nodes":"15","size_leaf_vector":"0"}},{"base_weights":[2.06758E-1,1.00772515E-1,3.999902E-1,-1.2804376E-1,1.22207284E-1,3.916671E-1,2.1791723E0,-6.8330616E-1,-9.328274E-2,8.0014475E-2,1.703778E-1,2.9037276E-1,4.9014145E-1,4.5976868E-1,2.8922663E0],"categories":[],"categories_nodes":[],"categories_segments":[],"categories_sizes":[],"default_left":[1,1,1,1,1,1,1,0,0,0,0,0,0,0,0],"id":52,"left_children":[1,3,5,7,9,11,13,-1,-1,-1,-1,-1,-1,-1,-1],"loss_changes":[1.6412582E2,2.54118E1,4.1187195E1,8.506121E0,9.610016E0,2.8056732E1,1.4609482E1,0E0,0E0,0E0,0E0,0E0,0E0,0E0,0E0],"parents":[2147483647,0,0,1,1,2,2,3,3,4,4,5,5,6,6],"right_children":[2,4,6,8,10,12,14,-1,-1,-1,-1,-1,-1,-1,-1],"split_conditions":[5.86E1,1.4785E1,1.3642001E2,1.0205E1,2.4715E1,9.3655E1,1.34155E2,-6.8330616E-2,-9.328274E-3,8.001448E-3,1.7037781E-2,2.9037276E-2,4.9014147E-2,4.597687E-2,2.8922662E-1],"split_indices":[0,0,2,0,0,0,0,0,0,0,0,0,0,0,0],"split_type":[0,0,0,0,0,0,0,0,0,0,0,0,0,0,0],"sum_hessian":[8.015E3,5.177E3,2.838E3,4.43E2,4.734E3,2.826E3,1.2E1,2.5E1,4.18E2,2.525E3,2.209E3,1.395E3,1.431E3,4E0,8E0],"tree_param":{"num_deleted":"0","num_feature":"3","num_nodes":"15","size_leaf_vector":"0"}},{"base_weights":[1.8786278E-1,8.040323E-2,3.6319858E-1,-1.0697055E-1,1.02783345E-1,3.524788E-1,2.8230755E0,-6.3991123E-1,-7.921026E-2,1.0487888E-1,-1.4552675E0,3.065441E-1,5.397287E-1,4.389981E0,-5.61969E-1],"categories":[],"categories_nodes":[],"categories_segments":[],"categories_sizes":[],"default_left":[1,1,1,1,1,1,1,0,0,0,0,0,0,0,0],"id":53,"left_children":[1,3,5,7,9,11,13,-1,-1,-1,-1,-1,-1,-1,-1],"loss_changes":[1.501753E2,2.0743393E1,7.8877686E1,7.760856E0,1.4573944E1,2.5784607E1,7.141959E1,0E0,0E0,0E0,0E0,0E0,0E0,0E0,0E0],"parents":[2147483647,0,0,1,1,2,2,3,3,4,4,5,5,6,6],"right_children":[2,4,6,8,10,12,14,-1,-1,-1,-1,-1,-1,-1,-1],"split_conditions":[5.4595E1,1.5285E1,1.3559E2,1.0205E1,5.704E1,1.10685E2,1.4183499E2,-6.399112E-2,-7.921026E-3,1.0487888E-2,-1.4552675E-1,3.065441E-2,5.397287E-2,4.3899807E-1,-5.61969E-2],"split_indices":[0,0,0,0,2,2,0,0,0,0,0,0,0,0,0],"split_type":[0,0,0,0,0,0,0,0,0,0,0,0,0,0,0],"sum_hessian":[7.971E3,4.943E3,3.028E3,5.27E2,4.416E3,3.016E3,1.2E1,2.5E1,5.02E2,4.411E3,5E0,2.424E3,5.92E2,8E0,4E0],"tree_param":{"num_deleted":"0","num_feature":"3","num_nodes":"15","size_leaf_vector":"0"}},{"base_weights":[1.6765776E-1,1.02246515E-1,3.852506E-1,1.03742704E-1,-4.5489273E0,3.5208848E-1,8.961197E-1,2.6221242E-2,1.6022554E-1,3.556293E-1,-1.2708836E0,3.2811425E0,6.301259E-1],"categories":[],"categories_nodes":[],"categories_segments":[],"categories_sizes":[],"default_left":[1,1,1,1,0,1,1,0,0,0,0,0,0],"id":54,"left_children":[1,3,5,7,-1,9,11,-1,-1,-1,-1,-1,-1],"loss_changes":[1.1378206E2,4.327014E1,3.0992401E1,2.6920006E1,0E0,1.0433945E1,6.8985405E1,0E0,0E0,0E0,0E0,0E0,0E0],"parents":[2147483647,0,0,1,1,2,2,3,3,5,5,6,6],"right_children":[2,4,6,8,-1,10,12,-1,-1,-1,-1,-1,-1],"split_conditions":[7.7435E1,8.1240005E1,1.23634995E2,2.099E1,-4.5489272E-1,1.27274994E2,1.22345E2,2.6221243E-3,1.6022554E-2,3.556293E-2,-1.2708835E-1,3.2811424E-1,6.301259E-2],"split_indices":[0,1,2,0,0,1,1,0,0,0,0,0,0],"split_type":[0,0,0,0,0,0,0,0,0,0,0,0,0],"sum_hessian":[7.996E3,6.149E3,1.847E3,6.148E3,1E0,1.736E3,1.11E2,2.592E3,3.556E3,1.733E3,3E0,1E1,1.01E2],"tree_param":{"num_deleted":"0","num_feature":"3","num_nodes":"13","size_leaf_vector":"0"}},{"base_weights":[1.4945976E-1,6.3758284E-2,2.8879556E-1,-1.9072735E-1,7.648525E-2,2.8524628E-1,2.9025192E0,-6.069923E-1,-1.4270335E-1,7.888056E-2,-1.0533707E0,1.3640193E0,2.79781E-1,5.424652E-1,3.508382E0],"categories":[],"categories_nodes":[],"categories_segments":[],"categories_sizes":[],"default_left":[1,1,1,1,1,1,1,0,0,0,0,0,0,0,0],"id":55,"left_children":[1,3,5,7,9,11,13,-1,-1,-1,-1,-1,-1,-1,-1],"loss_changes":[9.49984E1,1.5975536E1,2.728093E1,4.6111956E0,1.27867775E1,1.746489E1,3.8162994E0,0E0,0E0,0E0,0E0,0E0,0E0,0E0,0E0],"parents":[2147483647,0,0,1,1,2,2,3,3,4,4,5,5,6,6],"right_children":[2,4,6,8,10,12,14,-1,-1,-1,-1,-1,-1,-1,-1],"split_conditions":[5.5405E1,1.3215E1,1.43055E2,1.007E1,5.522E1,5.4745003E1,1.34035E2,-6.0699232E-2,-1.4270335E-2,7.888056E-3,-1.05337076E-1,1.3640194E-1,2.7978102E-2,5.4246522E-2,3.508382E-1],"split_indices":[2,1,2,1,2,1,0,0,0,0,0,0,0,0,0],"split_type":[0,0,0,0,0,0,0,0,0,0,0,0,0,0,0],"sum_hessian":[7.956E3,4.927E3,3.029E3,2.34E2,4.693E3,3.026E3,3E0,2.3E1,2.11E2,4.684E3,9E0,1.4E1,3.012E3,1E0,2E0],"tree_param":{"num_deleted":"0","num_feature":"3","num_nodes":"15","size_leaf_vector":"0"}},{"base_weights":[1.3395117E-1,4.8421003E-2,2.4382424E-1,5.22814E-2,-1.1895362E0,2.0815925E-1,4.9814826E-1,-5.0269347E-2,7.813388E-2,-1.3386058E0,3.7418365E-1,2.2420754E0,2.0477006E-1,1.2907045E0,4.4170618E-1],"categories":[],"categories_nodes":[],"categories_segments":[],"categories_sizes":[],"default_left":[1,1,1,1,1,1,1,0,0,0,0,0,0,0,0],"id":56,"left_children":[1,3,5,7,9,11,13,-1,-1,-1,-1,-1,-1,-1,-1],"loss_changes":[7.500812E1,2.1519909E1,3.1588516E1,1.1873311E1,3.764326E0,2.0675903E1,1.8620575E1,0E0,0E0,0E0,0E0,0E0,0E0,0E0,0E0],"parents":[2147483647,0,0,1,1,2,2,3,3,4,4,5,5,6,6],"right_children":[2,4,6,8,10,12,14,-1,-1,-1,-1,-1,-1,-1,-1],"split_conditions":[4.4875E1,4.579E1,1.1304E2,1.6505001E1,4.4434998E1,4.228E1,1.13455E2,-5.0269347E-3,7.8133885E-3,-1.3386057E-1,3.7418365E-2,2.2420755E-1,2.0477006E-2,1.2907045E-1,4.4170618E-2],"split_indices":[1,0,0,0,1,2,0,0,0,0,0,0,0,0,0],"split_type":[0,0,0,0,0,0,0,0,0,0,0,0,0,0,0],"sum_hessian":[7.982E3,4.489E3,3.493E3,4.476E3,1.3E1,3.065E3,4.28E2,9.01E2,3.575E3,1.2E1,1E0,4E0,3.061E3,2.7E1,4.01E2],"tree_param":{"num_deleted":"0","num_feature":"3","num_nodes":"15","size_leaf_vector":"0"}},{"base_weights":[1.2444541E-1,4.585559E-2,2.2164735E-1,4.4506807E-2,2.0177727E0,2.0655322E-1,7.971016E-1,-1.667252E-1,5.6621417E-2,2.1416692E-1,-6.7717767E-1,7.0243895E-1,2.6804047E0],"categories":[],"categories_nodes":[],"categories_segments":[],"categories_sizes":[],"default_left":[1,1,1,1,0,1,1,0,0,0,0,0,0],"id":57,"left_children":[1,3,5,7,-1,9,11,-1,-1,-1,-1,-1,-1],"loss_changes":[6.106431E1,1.16713085E1,3.0879074E1,1.1320189E1,0E0,2.3587036E1,1.4340527E1,0E0,0E0,0E0,0E0,0E0,0E0],"parents":[2147483647,0,0,1,1,2,2,3,3,5,5,6,6],"right_children":[2,4,6,8,-1,10,12,-1,-1,-1,-1,-1,-1],"split_conditions":[4.3125E1,4.615E1,1.24425E2,1.3215E1,2.0177726E-1,1.2395E2,1.43055E2,-1.667252E-2,5.662142E-3,2.1416692E-2,-6.771777E-2,7.0243895E-2,2.6804048E-1],"split_indices":[2,1,0,1,0,1,2,0,0,0,0,0,0],"split_type":[0,0,0,0,0,0,0,0,0,0,0,0,0],"sum_hessian":[7.994E3,4.421E3,3.573E3,4.419E3,2E0,3.483E3,9E1,2.39E2,4.18E3,3.454E3,2.9E1,8.7E1,3E0],"tree_param":{"num_deleted":"0","num_feature":"3","num_nodes":"13","size_leaf_vector":"0"}},{"base_weights":[9.790657E-2,6.6702925E-2,2.9790145E-1,6.854836E-2,-2.0669773E0,2.8126952E-1,1.5406505E0,6.720664E-2,2.3652039E0,-2.8546715E0,-3.2772574E-1,1.0102606E0,2.5841475E-1,2.4975877E0,-6.8135375E-1],"categories":[],"categories_nodes":[],"categories_segments":[],"categories_sizes":[],"default_left":[1,1,1,1,1,1,1,0,0,0,0,0,0,0,0],"id":58,"left_children":[1,3,5,7,9,11,13,-1,-1,-1,-1,-1,-1,-1,-1],"loss_changes":[4.979236E1,2.7334597E1,2.182753E1,2.1106224E1,7.284439E0,1.7466171E1,3.1470196E1,0E0,0E0,0E0,0E0,0E0,0E0,0E0,0E0],"parents":[2147483647,0,0,1,1,2,2,3,3,4,4,5,5,6,6],"right_children":[2,4,6,8,10,12,14,-1,-1,-1,-1,-1,-1,-1,-1],"split_conditions":[1.05645E2,1.07905E2,1.3559E2,1.09509995E2,1.0494E2,1.05415E2,1.4183499E2,6.7206644E-3,2.365204E-1,-2.8546715E-1,-3.2772575E-2,1.0102606E-1,2.5841475E-2,2.4975877E-1,-6.813537E-2],"split_indices":[2,1,0,0,2,0,0,0,0,0,0,0,0,0,0],"split_type":[0,0,0,0,0,0,0,0,0,0,0,0,0,0,0],"sum_hessian":[7.981E3,6.905E3,1.076E3,6.9E3,5E0,1.063E3,1.3E1,6.897E3,3E0,3E0,2E0,3.1E1,1.032E3,9E0,4E0],"tree_param":{"num_deleted":"0","num_feature":"3","num_nodes":"15","size_leaf_vector":"0"}},{"base_weights":[8.816788E-2,4.8548955E-2,2.080596E-1,5.2603498E-2,-7.600586E-1,2.0122369E-1,1.869667E0,5.583365E-2,-7.851688E-1,-1.5209198E0,7.5244904E-4,1.74926E0,1.9719456E-1,3.1743653E0,-2.2862244E-1],"categories":[],"categories_nodes":[],"categories_segments":[],"categories_sizes":[],"default_left":[1,1,1,1,1,1,1,0,0,0,0,0,0,0,0],"id":59,"left_children":[1,3,5,7,9,11,13,-1,-1,-1,-1,-1,-1,-1,-1],"loss_changes":[3.7899494E1,1.971119E1,2.213652E1,1.620214E1,1.7367292E1,1.1973587E1,2.2626806E1,0E0,0E0,0E0,0E0,0E0,0E0,0E0,0E0],"parents":[2147483647,0,0,1,1,2,2,3,3,4,4,5,5,6,6],"right_children":[2,4,6,8,10,12,14,-1,-1,-1,-1,-1,-1,-1,-1],"split_conditions":[7.457E1,7.4955E1,1.3761E2,7.3770004E1,7.309E1,6.982E1,1.4183499E2,5.583365E-3,-7.8516886E-2,-1.5209198E-1,7.5244905E-5,1.74926E-1,1.9719457E-2,3.1743655E-1,-2.2862244E-2],"split_indices":[2,0,0,2,2,0,0,0,0,0,0,0,0,0,0],"split_type":[0,0,0,0,0,0,0,0,0,0,0,0,0,0,0],"sum_hessian":[7.98E3,5.999E3,1.981E3,5.97E3,2.9E1,1.974E3,7E0,5.948E3,2.2E1,1.4E1,1.5E1,4E0,1.97E3,4E0,3E0],"tree_param":{"num_deleted":"0","num_feature":"3","num_nodes":"15","size_leaf_vector":"0"}},{"base_weights":[9.177374E-2,5.098535E-2,2.525172E-1,-4.219407E-2,7.66972E-2,5.865163E-1,2.1985433E-1,-5.243552E-1,-3.2876745E-2,7.557755E-2,1.175856E0,3.9416674E-1,1.8211048E0,-3.436384E-1,2.4117313E-1],"categories":[],"categories_nodes":[],"categories_segments":[],"categories_sizes":[],"default_left":[1,1,1,1,1,1,1,0,0,0,0,0,0,0,0],"id":60,"left_children":[1,3,5,7,9,11,13,-1,-1,-1,-1,-1,-1,-1,-1],"loss_changes":[5.2215935E1,1.52286415E1,1.7456947E1,6.1598797E0,6.0411053E0,3.3240753E1,1.7741982E1,0E0,0E0,0E0,0E0,0E0,0E0,0E0,0E0],"parents":[2147483647,0,0,1,1,2,2,3,3,4,4,5,5,6,6],"right_children":[2,4,6,8,10,12,14,-1,-1,-1,-1,-1,-1,-1,-1],"split_conditions":[8.4585E1,1.7735E1,9.1665E1,1.0205E1,8.8375E1,9.1625E1,9.4619995E1,-5.2435517E-2,-3.2876746E-3,7.557755E-3,1.175856E-1,3.9416675E-2,1.8211047E-1,-3.436384E-2,2.4117313E-2],"split_indices":[0,0,1,0,2,0,0,0,0,0,0,0,0,0,0],"split_type":[0,0,0,0,0,0,0,0,0,0,0,0,0,0,0],"sum_hessian":[7.965E3,6.354E3,1.611E3,1.374E3,4.98E3,1.42E2,1.469E3,2.5E1,1.349E3,4.976E3,4E0,1.24E2,1.8E1,5.3E1,1.416E3],"tree_param":{"num_deleted":"0","num_feature":"3","num_nodes":"15","size_leaf_vector":"0"}},{"base_weights":[7.801576E-2,4.9934596E-2,2.5895718E-1,-2.6345955E-2,7.354233E-2,2.4451888E-1,1.5187773E0,-2.9218346E-1,-1.4130119E-2,8.05701E-2,-2.7137995E-1,2.5751764E-1,-9.175828E-1,1.9245774E0,-3.4014893E-1],"categories":[],"categories_nodes":[],"categories_segments":[],"categories_sizes":[],"default_left":[1,1,1,1,1,1,1,0,0,0,0,0,0,0,0],"id":61,"left_children":[1,3,5,7,9,11,13,-1,-1,-1,-1,-1,-1,-1,-1],"loss_changes":[4.0691326E1,1.2492363E1,1.9200714E1,5.3216515E0,1.286199E1,1.632407E1,9.706869E0,0E0,0E0,0E0,0E0,0E0,0E0,0E0,0E0],"parents":[2147483647,0,0,1,1,2,2,3,3,4,4,5,5,6,6],"right_children":[2,4,6,8,10,12,14,-1,-1,-1,-1,-1,-1,-1,-1],"split_conditions":[1.0661E2,1.831E1,1.3642001E2,1.1184999E1,1.03854996E2,1.34155E2,1.42595E2,-2.9218346E-2,-1.4130119E-3,8.05701E-3,-2.7137995E-2,2.5751764E-2,-9.175828E-2,1.9245774E-1,-3.401489E-2],"split_indices":[1,0,2,2,2,2,0,0,0,0,0,0,0,0,0],"split_type":[0,0,0,0,0,0,0,0,0,0,0,0,0,0,0],"sum_hessian":[8.01E3,6.935E3,1.075E3,1.639E3,5.296E3,1.064E3,1.1E1,7.1E1,1.568E3,5.191E3,1.05E2,1.053E3,1.1E1,9E0,2E0],"tree_param":{"num_deleted":"0","num_feature":"3","num_nodes":"15","size_leaf_vector":"0"}},{"base_weights":[7.438602E-2,7.166005E-2,1.6261902E0,1.4167137E-2,1.2652214E-1,2.048706E0,-6.059367E-1,1.598059E-2,-9.982087E-1,1.2487427E-1,2.3309326E0,2.7895627E0,-1.303978E-1,-1.8354187E0,9.265137E-1],"categories":[],"categories_nodes":[],"categories_segments":[],"categories_sizes":[],"default_left":[1,1,1,1,1,1,1,0,0,0,0,0,0,0,0],"id":62,"left_children":[1,3,5,7,9,11,13,-1,-1,-1,-1,-1,-1,-1,-1],"loss_changes":[3.376724E1,2.5222198E1,1.4444916E1,7.186959E0,1.4573372E1,1.9736599E1,7.3529015E0,0E0,0E0,0E0,0E0,0E0,0E0,0E0,0E0],"parents":[2147483647,0,0,1,1,2,2,3,3,4,4,5,5,6,6],"right_children":[2,4,6,8,10,12,14,-1,-1,-1,-1,-1,-1,-1,-1],"split_conditions":[1.3559E2,3.1665E1,1.4183499E2,3.2985E1,1.43055E2,1.4183499E2,1.3720999E2,1.5980591E-3,-9.9820875E-2,1.2487427E-2,2.3309326E-1,2.7895626E-1,-1.303978E-2,-1.8354188E-1,9.265137E-2],"split_indices":[0,2,1,1,2,0,0,0,0,0,0,0,0,0,0],"split_type":[0,0,0,0,0,0,0,0,0,0,0,0,0,0,0],"sum_hessian":[8.009E3,7.996E3,1.3E1,3.905E3,4.091E3,1.1E1,2E0,3.899E3,6E0,4.089E3,2E0,8E0,3E0,1E0,1E0],"tree_param":{"num_deleted":"0","num_feature":"3","num_nodes":"15","size_leaf_vector":"0"}},{"base_weights":[6.465679E-2,2.5338167E-2,1.728919E-1,2.670548E-2,-1.114127E0,1.6229965E-1,9.856228E-1,-1.3151951E-1,3.5275817E-2,-2.3032823E0,1.2391739E0,1.7072201E-1,-7.638361E-1,1.4101243E0,-4.2868477E-1],"categories":[],"categories_nodes":[],"categories_segments":[],"categories_sizes":[],"default_left":[1,1,1,1,1,1,1,0,0,0,0,0,0,0,0],"id":63,"left_children":[1,3,5,7,9,11,13,-1,-1,-1,-1,-1,-1,-1,-1],"loss_changes":[3.3759995E1,9.098896E0,1.803872E1,7.890023E0,2.2443245E1,1.6417316E1,1.6814644E1,0E0,0E0,0E0,0E0,0E0,0E0,0E0,0E0],"parents":[2147483647,0,0,1,1,2,2,3,3,4,4,5,5,6,6],"right_children":[2,4,6,8,10,12,14,-1,-1,-1,-1,-1,-1,-1,-1],"split_conditions":[7.1600006E1,7.4955E1,1.33905E2,1.3915E1,7.4435E1,1.2802E2,1.40955E2,-1.3151951E-2,3.5275817E-3,-2.3032823E-1,1.2391739E-1,1.70722E-2,-7.638361E-2,1.4101243E-1,-4.2868476E-2],"split_indices":[2,0,1,0,1,1,1,0,0,0,0,0,0,0,0],"split_type":[0,0,0,0,0,0,0,0,0,0,0,0,0,0,0],"sum_hessian":[7.933E3,5.82E3,2.113E3,5.814E3,6E0,2.087E3,2.6E1,2.98E2,5.516E3,4E0,2E0,2.069E3,1.8E1,2E1,6E0],"tree_param":{"num_deleted":"0","num_feature":"3","num_nodes":"15","size_leaf_vector":"0"}},{"base_weights":[6.5630965E-2,4.6076298E-2,2.6009214E-1,4.5355394E-2,2.6298294E0,1.8304291E0,2.2669081E-1,1.0606116E-2,9.611009E-2,2.9181824E0,1.1695931E0,1.5058696E-1,4.6157232E-1],"categories":[],"categories_nodes":[],"categories_segments":[],"categories_sizes":[],"default_left":[1,1,1,1,0,1,1,0,0,0,0,0,0],"id":64,"left_children":[1,3,5,7,-1,9,11,-1,-1,-1,-1,-1,-1],"loss_changes":[3.0253098E1,1.3353196E1,3.771718E1,1.2753981E1,0E0,7.3693085E0,1.2675644E1,0E0,0E0,0E0,0E0,0E0,0E0],"parents":[2147483647,0,0,1,1,2,2,3,3,5,5,6,6],"right_children":[2,4,6,8,-1,10,12,-1,-1,-1,-1,-1,-1],"split_conditions":[1.09545E2,1.1736E2,1.07585E2,3.985E1,2.6298293E-1,1.0978999E2,1.1872E2,1.0606116E-3,9.61101E-3,2.9181823E-1,1.1695931E-1,1.5058696E-2,4.6157233E-2],"split_indices":[0,2,1,0,0,0,2,0,0,0,0,0,0],"split_type":[0,0,0,0,0,0,0,0,0,0,0,0,0],"sum_hessian":[7.958E3,7.232E3,7.26E2,7.231E3,1E0,1.4E1,7.12E2,4.293E3,2.938E3,4E0,1E1,5.39E2,1.73E2],"tree_param":{"num_deleted":"0","num_feature":"3","num_nodes":"13","size_leaf_vector":"0"}},{"base_weights":[5.8693554E-2,5.041615E-2,3.984137E-1,4.879721E-3,9.527602E-2,7.323629E-1,8.742585E-2,5.8294446E-3,-1.8272028E0,1.0527621E-1,-2.7546173E-1,5.9733635E-1,2.267348E0,-2.7551804E0,2.3611642E-1],"categories":[],"categories_nodes":[],"categories_segments":[],"categories_sizes":[],"default_left":[1,1,1,1,1,1,1,0,0,0,0,0,0,0,0],"id":65,"left_children":[1,3,5,7,9,11,13,-1,-1,-1,-1,-1,-1,-1,-1],"loss_changes":[2.2340958E1,1.585951E1,1.9564404E1,6.716504E0,1.4528824E1,1.7506641E1,4.249475E1,0E0,0E0,0E0,0E0,0E0,0E0,0E0,0E0],"parents":[2147483647,0,0,1,1,2,2,3,3,4,4,5,5,6,6],"right_children":[2,4,6,8,10,12,14,-1,-1,-1,-1,-1,-1,-1,-1],"split_conditions":[1.18415E2,3.1654999E1,1.2395E2,3.164E1,1.15655E2,1.26024994E2,1.2411E2,5.829445E-4,-1.8272029E-1,1.0527621E-2,-2.7546173E-2,5.9733637E-2,2.267348E-1,-2.7551803E-1,2.3611642E-2],"split_indices":[0,0,1,0,1,2,1,0,0,0,0,0,0,0,0],"split_type":[0,0,0,0,0,0,0,0,0,0,0,0,0,0,0],"sum_hessian":[7.951E3,7.763E3,1.88E2,3.853E3,3.91E3,9E1,9.8E1,3.852E3,1E0,3.808E3,1.02E2,8.4E1,6E0,4E0,9.4E1],"tree_param":{"num_deleted":"0","num_feature":"3","num_nodes":"15","size_leaf_vector":"0"}},{"base_weights":[4.568557E-2,3.6415376E-2,3.1595805E-1,3.9829552E-2,-3.9352855E-1,1.8141165E0,2.6827887E-1,3.6482226E-2,6.7750376E-1,-6.3953286E-1,1.0988889E0,-1.570816E-1,2.4973629E0,2.4222188E-1,1.8623428E0],"categories":[],"categories_nodes":[],"categories_segments":[],"categories_sizes":[],"default_left":[1,1,1,1,1,1,1,0,0,0,0,0,0,0,0],"id":66,"left_children":[1,3,5,7,9,11,13,-1,-1,-1,-1,-1,-1,-1,-1],"loss_changes":[2.0019798E1,1.136405E1,1.8442509E1,1.6349064E1,2.3098381E1,1.1166801E1,1.0265322E1,0E0,0E0,0E0,0E0,0E0,0E0,0E0,0E0],"parents":[2147483647,0,0,1,1,2,2,3,3,4,4,5,5,6,6],"right_children":[2,4,6,8,10,12,14,-1,-1,-1,-1,-1,-1,-1,-1],"split_conditions":[1.16265E2,1.15655E2,1.11915E2,1.148E2,1.1828E2,1.10665E2,1.43055E2,3.6482227E-3,6.775038E-2,-6.395329E-2,1.0988889E-1,-1.5708162E-2,2.497363E-1,2.4222188E-2,1.8623428E-1],"split_indices":[0,1,2,1,1,1,2,0,0,0,0,0,0,0,0],"split_type":[0,0,0,0,0,0,0,0,0,0,0,0,0,0,0],"sum_hessian":[7.994E3,7.73E3,2.64E2,7.67E3,6E1,7E0,2.57E2,7.631E3,3.9E1,5.2E1,8E0,2E0,5E0,2.54E2,3E0],"tree_param":{"num_deleted":"0","num_feature":"3","num_nodes":"15","size_leaf_vector":"0"}},{"base_weights":[4.289833E-2,1.1296068E-2,1.2832047E-1,1.2768432E-2,-2.1330795E0,1.383028E0,1.2358329E-1,1.6278148E-2,-3.6216283E-1,1.7877448E0,-7.2499466E-1,-2.9583385E0,1.2783805E-1],"categories":[],"categories_nodes":[],"categories_segments":[],"categories_sizes":[],"default_left":[1,1,1,1,0,1,1,0,0,0,0,0,0],"id":67,"left_children":[1,3,5,7,-1,9,11,-1,-1,-1,-1,-1,-1],"loss_changes":[2.1521923E1,1.8405872E1,1.2626019E1,7.661818E0,0E0,8.121324E0,2.8518265E1,0E0,0E0,0E0,0E0,0E0,0E0],"parents":[2147483647,0,0,1,1,2,2,3,3,5,5,6,6],"right_children":[2,4,6,8,-1,10,12,-1,-1,-1,-1,-1,-1],"split_conditions":[7.125E1,7.4955E1,6.7935E1,6.9895004E1,-2.1330796E-1,7.478E1,6.7005005E1,1.6278148E-3,-3.6216285E-2,1.7877448E-1,-7.249947E-2,-2.9583386E-1,1.2783805E-2],"split_indices":[2,0,1,2,0,2,0,0,0,0,0,0,0],"split_type":[0,0,0,0,0,0,0,0,0,0,0,0,0],"sum_hessian":[7.972E3,5.82E3,2.152E3,5.817E3,3E0,7E0,2.145E3,5.764E3,5.3E1,6E0,1E0,2E0,2.143E3],"tree_param":{"num_deleted":"0","num_feature":"3","num_nodes":"13","size_leaf_vector":"0"}},{"base_weights":[4.3397184E-2,1.7746205E-2,1.2573032E-1,2.2167228E-2,-3.6322054E-1,-2.2727852E0,1.2819149E-1,-2.7671121E-2,4.7031324E-2,-9.4788444E-1,-1.5780222E-1,1.7913574E0,1.23733185E-1],"categories":[],"categories_nodes":[],"categories_segments":[],"categories_sizes":[],"default_left":[1,1,1,1,1,0,1,0,0,0,0,0,0],"id":68,"left_children":[1,3,5,7,9,-1,11,-1,-1,-1,-1,-1,-1],"loss_changes":[1.6882612E1,1.0277002E1,1.1501444E1,7.471111E0,8.25747E0,0E0,1.385182E1,0E0,0E0,0E0,0E0,0E0,0E0],"parents":[2147483647,0,0,1,1,2,2,3,3,4,4,6,6],"right_children":[2,4,6,8,10,-1,12,-1,-1,-1,-1,-1,-1],"split_conditions":[7.6195E1,7.5215E1,6.821E1,1.9005001E1,7.4240005E1,-2.2727852E-1,7.1795E1,-2.767112E-3,4.7031324E-3,-9.478845E-2,-1.5780224E-2,1.7913574E-1,1.2373319E-2],"split_indices":[2,0,0,2,2,0,0,0,0,0,0,0,0],"split_type":[0,0,0,0,0,0,0,0,0,0,0,0,0],"sum_hessian":[7.994E3,6.096E3,1.898E3,6.027E3,6.9E1,1E0,1.897E3,2.006E3,4.021E3,1.7E1,5.2E1,4E0,1.893E3],"tree_param":{"num_deleted":"0","num_feature":"3","num_nodes":"13","size_leaf_vector":"0"}},{"base_weights":[3.0125005E-2,2.8692339E-2,1.1685181E0,2.9952629E-2,-6.893817E-1,2.0171E0,-8.348389E-2,2.9196613E-2,3.0212708E0,-1.5879474E0,7.7336377E-1,1.6485596E-1,2.902008E0,7.92778E-1,-5.0074387E-1],"categories":[],"categories_nodes":[],"categories_segments":[],"categories_sizes":[],"default_left":[1,1,1,1,1,1,1,0,0,0,0,0,0,0,0],"id":69,"left_children":[1,3,5,7,9,11,13,-1,-1,-1,-1,-1,-1,-1,-1],"loss_changes":[1.29748335E1,7.2306356E0,1.0792658E1,1.7899616E1,1.962928E1,9.35598E0,2.225124E0,0E0,0E0,0E0,0E0,0E0,0E0,0E0,0E0],"parents":[2147483647,0,0,1,1,2,2,3,3,4,4,5,5,6,6],"right_children":[2,4,6,8,10,12,14,-1,-1,-1,-1,-1,-1,-1,-1],"split_conditions":[1.3761E2,1.34155E2,1.40955E2,1.3403E2,1.35305E2,1.34035E2,1.40025E2,2.9196613E-3,3.021271E-1,-1.5879475E-1,7.733638E-2,1.6485596E-2,2.902008E-1,7.9277806E-2,-5.0074387E-2],"split_indices":[2,2,1,2,1,0,2,0,0,0,0,0,0,0,0],"split_type":[0,0,0,0,0,0,0,0,0,0,0,0,0,0,0],"sum_hessian":[7.975E3,7.966E3,9E0,7.953E3,1.3E1,5E0,4E0,7.952E3,1E0,8E0,5E0,2E0,3E0,1E0,3E0],"tree_param":{"num_deleted":"0","num_feature":"3","num_nodes":"15","size_leaf_vector":"0"}},{"base_weights":[3.138163E-2,2.9939603E-2,1.6627742E0,7.7478257E-3,9.090835E-2,2.7256958E0,-6.6301984E-1,8.947227E-3,-8.6518574E-1,8.362221E-1,8.269036E-2,3.030552E0,7.531357E-1,3.126526E-1,-1.3071823E0],"categories":[],"categories_nodes":[],"categories_segments":[],"categories_sizes":[],"default_left":[1,1,1,1,1,1,1,0,0,0,0,0,0,0,0],"id":70,"left_children":[1,3,5,7,9,11,13,-1,-1,-1,-1,-1,-1,-1,-1],"loss_changes":[1.8645622E1,1.0743507E1,1.9112146E1,6.1044106E0,1.2909687E1,7.2431946E-1,2.2941685E0,0E0,0E0,0E0,0E0,0E0,0E0,0E0,0E0],"parents":[2147483647,0,0,1,1,2,2,3,3,4,4,5,5,6,6],"right_children":[2,4,6,8,10,12,14,-1,-1,-1,-1,-1,-1,-1,-1],"split_conditions":[1.381E2,7.1405E1,1.40025E2,7.3825E1,7.0685E1,1.42595E2,1.4231E2,8.947227E-4,-8.651858E-2,8.362221E-2,8.269036E-3,3.030552E-1,7.531357E-2,3.126526E-2,-1.3071823E-1],"split_indices":[0,2,2,1,1,0,0,0,0,0,0,0,0,0,0],"split_type":[0,0,0,0,0,0,0,0,0,0,0,0,0,0,0],"sum_hessian":[7.946E3,7.94E3,6E0,5.822E3,2.118E3,4E0,2E0,5.815E3,7E0,2.2E1,2.096E3,3E0,1E0,1E0,1E0],"tree_param":{"num_deleted":"0","num_feature":"3","num_nodes":"15","size_leaf_vector":"0"}},{"base_weights":[2.8139364E-2,1.5525221E-2,2.5289086E-1,2.0644628E-2,-4.3906793E-1,-1.5189921E0,2.6491642E-1,1.6526306E-2,4.2572203E-1,2.745462E-1,-7.8191227E-1,1.999836E0,2.4768053E-1],"categories":[],"categories_nodes":[],"categories_segments":[],"categories_sizes":[],"default_left":[1,1,1,1,1,0,1,0,0,0,0,0,0],"id":71,"left_children":[1,3,5,7,9,-1,11,-1,-1,-1,-1,-1,-1],"loss_changes":[2.2565886E1,1.7554182E1,9.41564E0,1.24313545E1,2.076599E1,0E0,1.2093777E1,0E0,0E0,0E0,0E0,0E0,0E0],"parents":[2147483647,0,0,1,1,2,2,3,3,4,4,6,6],"right_children":[2,4,6,8,10,-1,12,-1,-1,-1,-1,-1,-1],"split_conditions":[1.13315E2,1.1199E2,1.04335E2,1.1186E2,1.11494995E2,-1.518992E-1,1.0885E2,1.6526306E-3,4.2572204E-2,2.745462E-2,-7.819123E-2,1.999836E-1,2.4768053E-2],"split_indices":[2,2,0,0,0,0,1,0,0,0,0,0,0],"split_type":[0,0,0,0,0,0,0,0,0,0,0,0,0],"sum_hessian":[7.96E3,7.538E3,4.22E2,7.455E3,8.3E1,2E0,4.2E2,7.381E3,7.4E1,2.7E1,5.6E1,3E0,4.17E2],"tree_param":{"num_deleted":"0","num_feature":"3","num_nodes":"13","size_leaf_vector":"0"}},{"base_weights":[2.5929824E-2,1.9629326E-2,3.0054295E-1,2.4572462E-2,-2.9190856E-1,6.8151444E-1,1.925087E-2,2.2523712E-2,1.9877882E0,-1.2387667E0,-1.475942E-1,1.6273093E-1,1.0352824E0,-5.5775504E0,1.8367393E-1],"categories":[],"categories_nodes":[],"categories_segments":[],"categories_sizes":[],"default_left":[1,1,1,1,1,1,1,0,0,0,0,0,0,0,0],"id":72,"left_children":[1,3,5,7,9,11,13,-1,-1,-1,-1,-1,-1,-1,-1],"loss_changes":[1.380801E1,1.202821E1,1.9169285E1,3.0865353E1,1.6487885E1,1.3779732E1,9.6729744E1,0E0,0E0,0E0,0E0,0E0,0E0,0E0,0E0],"parents":[2147483647,0,0,1,1,2,2,3,3,4,4,5,5,6,6],"right_children":[2,4,6,8,10,12,14,-1,-1,-1,-1,-1,-1,-1,-1],"split_conditions":[1.1872E2,1.15655E2,1.2395E2,1.1732E2,1.1378999E2,1.2145E2,1.24015E2,2.2523713E-3,1.9877882E-1,-1.2387667E-1,-1.475942E-2,1.6273094E-2,1.0352824E-1,-5.5775505E-1,1.8367393E-2],"split_indices":[2,1,1,2,0,1,1,0,0,0,0,0,0,0,0],"split_type":[0,0,0,0,0,0,0,0,0,0,0,0,0,0,0],"sum_hessian":[7.983E3,7.805E3,1.78E2,7.684E3,1.21E2,7.5E1,1.03E2,7.677E3,7E0,1.5E1,1.06E2,3.1E1,4.4E1,2E0,1.01E2],"tree_param":{"num_deleted":"0","num_feature":"3","num_nodes":"15","size_leaf_vector":"0"}},{"base_weights":[3.25238E-2,-3.6448399E-3,7.747801E-2,-5.7418486E-3,1.1501656E0,1.3014221E0,7.364749E-2,-4.0651443E-3,-7.414085E-1,-5.1007843E-1,1.7885933E0,2.681675E-1,1.6553717E0,7.199967E-2,1.5102692E0],"categories":[],"categories_nodes":[],"categories_segments":[],"categories_sizes":[],"default_left":[1,1,1,1,1,1,1,0,0,0,0,0,0,0,0],"id":73,"left_children":[1,3,5,7,9,11,13,-1,-1,-1,-1,-1,-1,-1,-1],"loss_changes":[1.2928071E1,1.0669563E1,1.6524294E1,5.4243665E0,9.391889E0,3.5790043E0,8.259693E0,0E0,0E0,0E0,0E0,0E0,0E0,0E0,0E0],"parents":[2147483647,0,0,1,1,2,2,3,3,4,4,5,5,6,6],"right_children":[2,4,6,8,10,12,14,-1,-1,-1,-1,-1,-1,-1,-1],"split_conditions":[4.2864998E1,4.4875E1,4.1754997E1,4.4595E1,4.247E1,4.023E1,1.43055E2,-4.0651445E-4,-7.4140854E-2,-5.1007845E-2,1.7885934E-1,2.681675E-2,1.6553716E-1,7.199967E-3,1.5102692E-1],"split_indices":[2,1,1,0,0,1,2,0,0,0,0,0,0,0,0],"split_type":[0,0,0,0,0,0,0,0,0,0,0,0,0,0,0],"sum_hessian":[7.95E3,4.406E3,3.544E3,4.399E3,7E0,1E1,3.534E3,4.39E3,9E0,2E0,5E0,3E0,7E0,3.531E3,3E0],"tree_param":{"num_deleted":"0","num_feature":"3","num_nodes":"15","size_leaf_vector":"0"}},{"base_weights":[3.1990994E-2,2.6557071E-2,4.4161102E-1,2.9170685E-2,-6.8571234E-1,2.7212915E0,2.510084E-1,2.5883015E-2,5.6595993E-1,1.4694107E0,-1.0893085E0,3.1238034E0,-4.8145294E-2,-1.0185318E0,3.59858E-1],"categories":[],"categories_nodes":[],"categories_segments":[],"categories_sizes":[],"default_left":[1,1,1,1,1,1,1,0,0,0,0,0,0,0,0],"id":74,"left_children":[1,3,5,7,9,11,13,-1,-1,-1,-1,-1,-1,-1,-1],"loss_changes":[1.7850662E1,1.4765715E1,4.4940804E1,1.3914804E1,2.6824821E1,9.068249E0,1.3909042E1,0E0,0E0,0E0,0E0,0E0,0E0,0E0,0E0],"parents":[2147483647,0,0,1,1,2,2,3,3,4,4,5,5,6,6],"right_children":[2,4,6,8,10,12,14,-1,-1,-1,-1,-1,-1,-1,-1],"split_conditions":[1.23634995E2,1.22295E2,1.21955E2,1.18575E2,1.2161E2,1.22715E2,1.2221001E2,2.5883017E-3,5.6595992E-2,1.4694107E-1,-1.0893085E-1,3.1238034E-1,-4.8145293E-3,-1.01853184E-1,3.59858E-2],"split_indices":[2,2,1,0,0,0,0,0,0,0,0,0,0,0,0],"split_type":[0,0,0,0,0,0,0,0,0,0,0,0,0,0,0],"sum_hessian":[8.024E3,7.92E3,1.04E2,7.892E3,2.8E1,7E0,9.7E1,7.845E3,4.7E1,4E0,2.4E1,6E0,1E0,7E0,9E1],"tree_param":{"num_deleted":"0","num_feature":"3","num_nodes":"15","size_leaf_vector":"0"}},{"base_weights":[1.2941711E-2,1.1800605E-2,1.0207486E0,1.3392153E-2,-5.9051806E-1,-4.012207E-1,2.238568E0,1.2073382E-2,1.1741807E0,-1.9993693E0,-2.5291443E-2,2.91214E-1,-6.471329E-1,2.7072372E0,1.819458E-1],"categories":[],"categories_nodes":[],"categories_segments":[],"categories_sizes":[],"default_left":[1,1,1,1,1,1,1,0,0,0,0,0,0,0,0],"id":75,"left_children":[1,3,5,7,9,11,13,-1,-1,-1,-1,-1,-1,-1,-1],"loss_changes":[9.15127E0,7.6385155E0,1.6483475E1,1.2140488E1,1.6672157E1,1.0398448E0,4.326807E0,0E0,0E0,0E0,0E0,0E0,0E0,0E0,0E0],"parents":[2147483647,0,0,1,1,2,2,3,3,4,4,5,5,6,6],"right_children":[2,4,6,8,10,12,14,-1,-1,-1,-1,-1,-1,-1,-1],"split_conditions":[1.3761E2,1.33605E2,1.34155E2,1.30655E2,1.3435999E2,1.4043E2,1.43815E2,1.2073382E-3,1.1741807E-1,-1.9993693E-1,-2.5291443E-3,2.9121399E-2,-6.471329E-2,2.7072373E-1,1.819458E-2],"split_indices":[2,0,0,0,0,2,2,0,0,0,0,0,0,0,0],"split_type":[0,0,0,0,0,0,0,0,0,0,0,0,0,0,0],"sum_hessian":[7.967E3,7.959E3,8E0,7.939E3,2E1,4E0,4E0,7.931E3,8E0,5E0,1.5E1,1E0,3E0,3E0,1E0],"tree_param":{"num_deleted":"0","num_feature":"3","num_nodes":"15","size_leaf_vector":"0"}},{"base_weights":[1.6909473E-2,-6.8216845E-2,2.8952643E-2,-4.8628068E-1,-5.7270106E-2,2.8209759E-2,1.313961E0,-7.13336E-1,-3.3747017E-1,-5.098695E-2,-2.3241502E-1,2.8857825E-2,-1.1056671E0,2.6496277E0,-1.4470418E-2],"categories":[],"categories_nodes":[],"categories_segments":[],"categories_sizes":[],"default_left":[1,1,1,1,1,1,1,0,0,0,0,0,0,0,0],"id":76,"left_children":[1,3,5,7,9,11,13,-1,-1,-1,-1,-1,-1,-1,-1],"loss_changes":[8.147115E0,4.4799385E0,6.607988E0,6.039753E-1,1.0456946E0,5.1448317E0,7.135708E0,0E0,0E0,0E0,0E0,0E0,0E0,0E0,0E0],"parents":[2147483647,0,0,1,1,2,2,3,3,4,4,5,5,6,6],"right_children":[2,4,6,8,10,12,14,-1,-1,-1,-1,-1,-1,-1,-1],"split_conditions":[1.6765E1,1.0205E1,1.43055E2,9.705E0,1.6965E1,1.4245999E2,1.3373E2,-7.13336E-2,-3.3747017E-2,-5.098695E-3,-2.3241503E-2,2.8857826E-3,-1.1056671E-1,2.6496276E-1,-1.4470419E-3],"split_indices":[0,0,2,0,2,0,1,0,0,0,0,0,0,0,0],"split_type":[0,0,0,0,0,0,0,0,0,0,0,0,0,0,0],"sum_hessian":[7.944E3,9.84E2,6.96E3,2.4E1,9.6E2,6.957E3,3E0,8E0,1.6E1,9.28E2,3.2E1,6.954E3,3E0,1E0,2E0],"tree_param":{"num_deleted":"0","num_feature":"3","num_nodes":"15","size_leaf_vector":"0"}},{"base_weights":[1.4585106E-2,1.0602351E-2,3.887904E-1,1.3890402E-2,-7.732715E-1,1.182637E0,2.1312626E-1,6.779164E-3,1.8317033E-1,-4.414186E0,-1.18863076E-1,3.6194938E-1,1.6895455E0,5.9374627E-2,8.2389176E-1],"categories":[],"categories_nodes":[],"categories_segments":[],"categories_sizes":[],"default_left":[1,1,1,1,1,1,1,0,0,0,0,0,0,0,0],"id":77,"left_children":[1,3,5,7,9,11,13,-1,-1,-1,-1,-1,-1,-1,-1],"loss_changes":[1.1887524E1,2.0362028E1,1.14617815E1,9.465362E0,7.81026E1,5.6286736E0,6.5245156E0,0E0,0E0,0E0,0E0,0E0,0E0,0E0,0E0],"parents":[2147483647,0,0,1,1,2,2,3,3,4,4,5,5,6,6],"right_children":[2,4,6,8,10,12,14,-1,-1,-1,-1,-1,-1,-1,-1],"split_conditions":[1.24915E2,1.2395E2,1.25765E2,1.1309E2,1.24130005E2,1.24495E2,1.3559E2,6.779164E-4,1.8317034E-2,-4.4141862E-1,-1.1886308E-2,3.619494E-2,1.6895455E-1,5.9374627E-3,8.2389176E-2],"split_indices":[0,1,0,0,1,1,0,0,0,0,0,0,0,0,0],"split_type":[0,0,0,0,0,0,0,0,0,0,0,0,0,0,0],"sum_hessian":[7.978E3,7.895E3,8.3E1,7.863E3,3.2E1,1.4E1,6.9E1,7.547E3,3.16E2,4E0,2.8E1,6E0,8E0,5.6E1,1.3E1],"tree_param":{"num_deleted":"0","num_feature":"3","num_nodes":"15","size_leaf_vector":"0"}},{"base_weights":[1.5237276E-2,-3.7010289E-3,6.682592E-2,1.6183505E-3,-3.348355E-1,4.373872E-1,5.364837E-2,-6.5810385E-4,6.5840834E-1,-1.9085693E0,-2.6117137E-1,5.453389E-1,-6.7377037E-1,-2.7066905E0,5.7596244E-2],"categories":[],"categories_nodes":[],"categories_segments":[],"categories_sizes":[],"default_left":[1,1,1,1,1,1,1,0,0,0,0,0,0,0,0],"id":78,"left_children":[1,3,5,7,9,11,13,-1,-1,-1,-1,-1,-1,-1,-1],"loss_changes":[7.855338E0,1.0361273E1,1.0519123E1,8.657366E0,1.0282814E1,9.243834E0,2.2888014E1,0E0,0E0,0E0,0E0,0E0,0E0,0E0,0E0],"parents":[2147483647,0,0,1,1,2,2,3,3,4,4,5,5,6,6],"right_children":[2,4,6,8,10,12,14,-1,-1,-1,-1,-1,-1,-1,-1],"split_conditions":[7.1240005E1,6.9585E1,7.2E1,6.979E1,6.54E1,7.395E1,6.7005005E1,-6.581039E-5,6.584083E-2,-1.9085693E-1,-2.6117137E-2,5.4533895E-2,-6.737704E-2,-2.7066907E-1,5.7596243E-3],"split_indices":[2,0,1,1,2,0,0,0,0,0,0,0,0,0,0],"split_type":[0,0,0,0,0,0,0,0,0,0,0,0,0,0,0],"sum_hessian":[8.039E3,5.881E3,2.158E3,5.789E3,9.2E1,7.3E1,2.085E3,5.77E3,1.9E1,3E0,8.9E1,6.7E1,6E0,2E0,2.083E3],"tree_param":{"num_deleted":"0","num_feature":"3","num_nodes":"15","size_leaf_vector":"0"}},{"base_weights":[1.7876223E-2,1.6261363E-2,1.3070084E0,1.7673021E-2,-1.5969652E0,-3.7900695E-1,2.4941864E0,1.6263481E-2,1.6224257E0,7.241923E-1,-2.6702666E0,2.6937103E-1,-6.084442E-1,3.1534805E0,7.837321E-1],"categories":[],"categories_nodes":[],"categories_segments":[],"categories_sizes":[],"default_left":[1,1,1,1,1,1,1,0,0,0,0,0,0,0,0],"id":79,"left_children":[1,3,5,7,9,11,13,-1,-1,-1,-1,-1,-1,-1,-1],"loss_changes":[1.6639143E1,1.8233154E1,2.0961317E1,1.8042164E1,1.9372898E1,9.077075E-1,4.294674E0,0E0,0E0,0E0,0E0,0E0,0E0,0E0,0E0],"parents":[2147483647,0,0,1,1,2,2,3,3,4,4,5,5,6,6],"right_children":[2,4,6,8,10,12,14,-1,-1,-1,-1,-1,-1,-1,-1],"split_conditions":[1.3642001E2,1.3591501E2,1.34155E2,1.3435999E2,1.3361E2,1.4043E2,1.40955E2,1.6263481E-3,1.6224258E-1,7.241923E-2,-2.6702666E-1,2.6937103E-2,-6.084442E-2,3.1534806E-1,7.8373216E-2],"split_indices":[2,0,0,0,2,2,1,0,0,0,0,0,0,0,0],"split_type":[0,0,0,0,0,0,0,0,0,0,0,0,0,0,0],"sum_hessian":[8.002E3,7.993E3,9E0,7.987E3,6E0,4E0,5E0,7.981E3,6E0,2E0,4E0,1E0,3E0,3E0,2E0],"tree_param":{"num_deleted":"0","num_feature":"3","num_nodes":"15","size_leaf_vector":"0"}},{"base_weights":[8.544952E-3,9.207123E-3,-1.7543539E0,7.945418E-3,1.4440721E0,1.0023382E-2,-9.1037875E-1,1.8053995E0,-3.619461E-1],"categories":[],"categories_nodes":[],"categories_segments":[],"categories_sizes":[],"default_left":[1,1,0,1,1,0,0,0,0],"id":80,"left_children":[1,3,-1,5,7,-1,-1,-1,-1],"loss_changes":[9.326859E0,1.4424463E1,0E0,1.5214016E1,5.221406E0,0E0,0E0,0E0,0E0],"parents":[2147483647,0,0,1,1,3,3,4,4],"right_children":[2,4,-1,6,8,-1,-1,-1,-1],"split_conditions":[1.43055E2,1.3761E2,-1.754354E-1,1.34155E2,1.4183499E2,1.0023381E-3,-9.103788E-2,1.8053995E-1,-3.619461E-2],"split_indices":[0,0,0,2,0,0,0,0,0],"split_type":[0,0,0,0,0,0,0,0,0],"sum_hessian":[7.975E3,7.973E3,2E0,7.967E3,6E0,7.95E3,1.7E1,5E0,1E0],"tree_param":{"num_deleted":"0","num_feature":"3","num_nodes":"9","size_leaf_vector":"0"}},{"base_weights":[8.092011E-3,-1.0287933E-2,5.6404434E-2,-6.2114866E-3,-8.502508E-1,1.4579111E0,5.064012E-2,-1.0417307E-2,3.415597E-1,-1.4473807E0,-3.119421E-1,1.8331947E0,-7.7217865E-1,-2.5279949E0,5.4139785E-2],"categories":[],"categories_nodes":[],"categories_segments":[],"categories_sizes":[],"default_left":[1,1,1,1,1,1,1,0,0,0,0,0,0,0,0],"id":81,"left_children":[1,3,5,7,9,11,13,-1,-1,-1,-1,-1,-1,-1,-1],"loss_changes":[7.1079698E0,1.9850863E1,1.7747843E1,8.446051E0,8.548826E0,8.947798E0,1.9972406E1,0E0,0E0,0E0,0E0,0E0,0E0,0E0,0E0],"parents":[2147483647,0,0,1,1,2,2,3,3,4,4,5,5,6,6],"right_children":[2,4,6,8,10,12,14,-1,-1,-1,-1,-1,-1,-1,-1],"split_conditions":[7.0265E1,7.107E1,6.7625E1,6.8524994E1,7.1735E1,7.478E1,6.7005005E1,-1.0417307E-3,3.4155972E-2,-1.4473806E-1,-3.119421E-2,1.8331948E-1,-7.721787E-2,-2.5279948E-1,5.413979E-3],"split_indices":[2,0,1,1,0,2,0,0,0,0,0,0,0,0,0],"split_type":[0,0,0,0,0,0,0,0,0,0,0,0,0,0,0],"sum_hessian":[8.003E3,5.798E3,2.205E3,5.771E3,2.7E1,8E0,2.197E3,5.703E3,6.8E1,1.2E1,1.5E1,7E0,1E0,2E0,2.195E3],"tree_param":{"num_deleted":"0","num_feature":"3","num_nodes":"15","size_leaf_vector":"0"}},{"base_weights":[6.904868E-3,-4.5418474E-3,8.5631035E-2,-3.318194E-3,-1.7027985E0,1.6283933E0,6.5449126E-2,-4.0546595E-3,1.7017237E0,-2.3417435E0,4.2649078E-1,1.1929321E-1,2.069194E0,4.7672817E-1,3.1030543E-2],"categories":[],"categories_nodes":[],"categories_segments":[],"categories_sizes":[],"default_left":[1,1,1,1,1,1,1,0,0,0,0,0,0,0,0],"id":82,"left_children":[1,3,5,7,9,11,13,-1,-1,-1,-1,-1,-1,-1,-1],"loss_changes":[7.1699862E0,1.4430754E1,3.1340662E1,8.725257E0,7.8012238E0,8.400921E0,1.4112537E1,0E0,0E0,0E0,0E0,0E0,0E0,0E0,0E0],"parents":[2147483647,0,0,1,1,2,2,3,3,4,4,5,5,6,6],"right_children":[2,4,6,8,10,12,14,-1,-1,-1,-1,-1,-1,-1,-1],"split_conditions":[1.0711E2,1.1249E2,1.07354996E2,1.09315E2,1.13825E2,1.0699E2,1.07884995E2,-4.0546595E-4,1.7017238E-1,-2.3417436E-1,4.264908E-2,1.1929321E-2,2.0691942E-1,4.767282E-2,3.1030544E-3],"split_indices":[0,2,0,1,2,1,1,0,0,0,0,0,0,0,0],"split_type":[0,0,0,0,0,0,0,0,0,0,0,0,0,0,0],"sum_hessian":[7.955E3,6.946E3,1.009E3,6.942E3,4E0,1.2E1,9.97E2,6.94E3,2E0,3E0,1E0,3E0,9E0,7.6E1,9.21E2],"tree_param":{"num_deleted":"0","num_feature":"3","num_nodes":"15","size_leaf_vector":"0"}},{"base_weights":[7.970205E-3,-3.5175707E-3,6.062162E-2,-2.0439753E-3,-3.2142918E0,2.31071E0,4.790237E-2,-3.3503042E-3,2.8451283E0,1.1864135E0,3.138403E0,-2.391208E0,5.648122E-2],"categories":[],"categories_nodes":[],"categories_segments":[],"categories_sizes":[],"default_left":[1,1,1,1,0,1,1,0,0,0,0,0,0],"id":83,"left_children":[1,3,5,7,-1,9,11,-1,-1,-1,-1,-1,-1],"loss_changes":[4.819034E0,3.0941402E1,4.072923E1,2.4330322E1,0E0,3.721138E0,2.9848213E1,0E0,0E0,0E0,0E0,0E0,0E0],"parents":[2147483647,0,0,1,1,2,2,3,3,5,5,6,6],"right_children":[2,4,6,8,-1,10,12,-1,-1,-1,-1,-1,-1],"split_conditions":[9.3655E1,9.6945E1,9.4265E1,9.7E1,-3.214292E-1,9.4149994E1,9.4465E1,-3.3503043E-4,2.8451285E-1,1.18641354E-1,3.138403E-1,-2.391208E-1,5.648122E-3],"split_indices":[0,1,0,2,0,0,0,0,0,0,0,0,0],"split_type":[0,0,0,0,0,0,0,0,0,0,0,0,0],"sum_hessian":[7.966E3,6.54E3,1.426E3,6.538E3,2E0,7E0,1.419E3,6.536E3,2E0,4E0,3E0,4E0,1.415E3],"tree_param":{"num_deleted":"0","num_feature":"3","num_nodes":"13","size_leaf_vector":"0"}},{"base_weights":[1.5176657E-3,2.1373143E-3,-1.6468405E0,1.4021491E-3,1.4673386E0,1.9599663E-3,-1.4815573E0,2.1904042E0,-3.5092926E-1],"categories":[],"categories_nodes":[],"categories_segments":[],"categories_sizes":[],"default_left":[1,1,0,1,1,0,0,0,0],"id":84,"left_children":[1,3,-1,5,7,-1,-1,-1,-1],"loss_changes":[8.154315E0,8.591564E0,0E0,6.5999846E0,6.027585E0,0E0,0E0,0E0,0E0],"parents":[2147483647,0,0,1,1,3,3,4,4],"right_children":[2,4,-1,6,8,-1,-1,-1,-1],"split_conditions":[1.43055E2,1.40955E2,-1.6468404E-1,1.395E2,1.4183499E2,1.9599663E-4,-1.4815573E-1,2.1904042E-1,-3.5092928E-2],"split_indices":[0,0,0,0,0,0,0,0,0],"split_type":[0,0,0,0,0,0,0,0,0],"sum_hessian":[7.979E3,7.977E3,2E0,7.974E3,3E0,7.972E3,2E0,2E0,1E0],"tree_param":{"num_deleted":"0","num_feature":"3","num_nodes":"9","size_leaf_vector":"0"}},{"base_weights":[3.3574027E-3,9.5544114E-5,3.0697775E-1,3.6632447E-3,-8.5193914E-1,1.2410828E0,1.8003002E-1,1.8507186E-5,9.266042E-1,-4.0792494E0,-2.6612908E-1,3.3215004E-1,2.5214443E0,8.235772E-1,5.8451608E-2],"categories":[],"categories_nodes":[],"categories_segments":[],"categories_sizes":[],"default_left":[1,1,1,1,1,1,1,0,0,0,0,0,0,0,0],"id":85,"left_children":[1,3,5,7,9,11,13,-1,-1,-1,-1,-1,-1,-1,-1],"loss_changes":[7.9199333E0,2.4057095E1,9.856081E0,2.65107E1,6.1303894E1,1.0800127E1,5.8982105E0,0E0,0E0,0E0,0E0,0E0,0E0,0E0,0E0],"parents":[2147483647,0,0,1,1,2,2,3,3,4,4,5,5,6,6],"right_children":[2,4,6,8,10,12,14,-1,-1,-1,-1,-1,-1,-1,-1],"split_conditions":[1.24915E2,1.2395E2,1.25545E2,1.2162E2,1.24130005E2,1.2531E2,1.2428E2,1.8507186E-6,9.266042E-2,-4.0792495E-1,-2.6612908E-2,3.3215005E-2,2.5214443E-1,8.235773E-2,5.8451607E-3],"split_indices":[0,1,0,1,1,0,1,0,0,0,0,0,0,0,0],"split_type":[0,0,0,0,0,0,0,0,0,0,0,0,0,0,0],"sum_hessian":[7.996E3,7.912E3,8.4E1,7.88E3,3.2E1,9E0,7.5E1,7.85E3,3E1,4E0,2.8E1,6E0,3E0,1.1E1,6.4E1],"tree_param":{"num_deleted":"0","num_feature":"3","num_nodes":"15","size_leaf_vector":"0"}},{"base_weights":[5.6049037E-3,4.2821695E-3,8.1580645E-1,5.5409605E-3,-1.4279349E0,2.4426727E0,2.9795143E-1,4.702075E-3,2.2292583E0,1.275444E0,-2.091072E0,-5.227585E-1,1.8648834E0],"categories":[],"categories_nodes":[],"categories_segments":[],"categories_sizes":[],"default_left":[1,1,1,1,1,0,1,0,0,0,0,0,0],"id":86,"left_children":[1,3,5,7,9,-1,11,-1,-1,-1,-1,-1,-1],"loss_changes":[8.547453E0,1.4371318E1,1.0224454E1,1.4840324E1,1.52160225E1,0E0,1.5120847E1,0E0,0E0,0E0,0E0,0E0,0E0],"parents":[2147483647,0,0,1,1,2,2,3,3,4,4,6,6],"right_children":[2,4,6,8,10,-1,12,-1,-1,-1,-1,-1,-1],"split_conditions":[1.34945E2,1.3591501E2,1.3373E2,1.35525E2,1.3245E2,2.4426727E-1,1.40955E2,4.702075E-4,2.2292583E-1,1.275444E-1,-2.091072E-1,-5.2275848E-2,1.8648835E-1],"split_indices":[2,0,1,0,2,0,0,0,0,0,0,0,0],"split_type":[0,0,0,0,0,0,0,0,0,0,0,0,0],"sum_hessian":[7.978E3,7.966E3,1.2E1,7.96E3,6E0,2E0,1E1,7.958E3,2E0,1E0,5E0,7E0,3E0],"tree_param":{"num_deleted":"0","num_feature":"3","num_nodes":"13","size_leaf_vector":"0"}},{"base_weights":[3.2391734E-3,3.812146E-3,-1.5334066E0,2.570388E-3,1.0006866E0,3.0924333E-3,-2.0947266E0,-2.4939576E-1,1.8756409E0],"categories":[],"categories_nodes":[],"categories_segments":[],"categories_sizes":[],"default_left":[1,1,0,1,1,0,0,0,0],"id":87,"left_children":[1,3,-1,5,7,-1,-1,-1,-1],"loss_changes":[7.086469E0,9.949956E0,0E0,8.799491E0,1.1405425E1,0E0,0E0,0E0,0E0],"parents":[2147483647,0,0,1,1,3,3,4,4],"right_children":[2,4,-1,6,8,-1,-1,-1,-1],"split_conditions":[1.43055E2,1.3642001E2,-1.5334067E-1,1.3591501E2,1.34155E2,3.0924333E-4,-2.0947266E-1,-2.4939576E-2,1.8756409E-1],"split_indices":[0,2,0,2,0,0,0,0,0],"split_type":[0,0,0,0,0,0,0,0,0],"sum_hessian":[8.041E3,8.039E3,2E0,8.03E3,9E0,8.029E3,1E0,4E0,5E0],"tree_param":{"num_deleted":"0","num_feature":"3","num_nodes":"9","size_leaf_vector":"0"}},{"base_weights":[2.3623938E-3,-2.4525242E-1,4.6472885E-3,-4.021951E-1,-1.6017447E-1,5.289111E-3,-8.417282E-1,7.596016E-3,-4.3815938E-1,-2.6229143E-1,-1.23711884E-1,4.1647586E-3,1.2732849E0,-1.6386566E0,-3.5461122E-1],"categories":[],"categories_nodes":[],